{"learner":{"attributes":{"best_iteration":"88","best_score":"0.5778270122360541","scikit_learn":"{\"_estimator_type\": \"classifier\"}"},"feature_names":[],"feature_types":[],"gradient_booster":{"model":{"gbtree_model_param":{"num_parallel_tree":"1","num_trees":"139"},"iteration_indptr":[0,1,2,3,4,5,6,7,8,9,10,11,12,13,14,15,16,17,18,19,20,21,22,23,24,25,26,27,28,29,30,31,32,33,34,35,36,37,38,39,40,41,42,43,44,45,46,47,48,49,50,51,52,53,54,55,56,57,58,59,60,61,62,63,64,65,66,67,68,69,70,71,72,73,74,75,76,77,78,79,80,81,82,83,84,85,86,87,88,89,90,91,92,93,94,95,96,97,98,99,100,101,102,103,104,105,106,107,108,109,110,111,112,113,114,115,116,117,118,119,120,121,122,123,124,125,126,127,128,129,130,131,132,133,134,135,136,137,138,139],"tree_info":[0,0,0,0,0,0,0,0,0,0,0,0,0,0,0,0,0,0,0,0,0,0,0,0,0,0,0,0,0,0,0,0,0,0,0,0,0,0,0,0,0,0,0,0,0,0,0,0,0,0,0,0,0,0,0,0,0,0,0,0,0,0,0,0,0,0,0,0,0,0,0,0,0,0,0,0,0,0,0,0,0,0,0,0,0,0,0,0,0,0,0,0,0,0,0,0,0,0,0,0,0,0,0,0,0,0,0,0,0,0,0,0,0,0,0,0,0,0,0,0,0,0,0,0,0,0,0,0,0,0,0,0,0,0,0,0,0,0,0],"trees":[{"base_weights":[3.3588526E-1,-2.5034976E0,6.7411774E-1,-3.4321022E-1,-8.455823E-1,-1.290184E0,8.526194E-1,-2.1129937E-1,6.4417884E-2,-2.5192378E0,2.9845653E-2,8.974176E-1,-6.466124E-2,-2.5990313E-2,4.4493195E-2,-0E0,-3.0216643E-1,-0E0,9.733661E-1,-7.142512E-2,3.7795988E-1,4.4432202E-1,1.0817533E0,6.990944E-2,-6.2231477E-3,7.7432746E-1,-7.590333E-2,1.1080492E0,9.0482505E-3,7.7083886E-2,-6.2231477E-3,2.3390118E-2,8.634596E-2],"categories":[],"categories_nodes":[],"categories_segments":[],"categories_sizes":[],"default_left":[0,0,0,0,0,0,0,0,0,0,0,0,0,0,0,0,0,0,0,0,0,0,0,0,0,0,0,0,0,0,0,0,0],"id":0,"left_children":[1,3,5,-1,7,9,11,-1,13,15,-1,17,-1,-1,-1,-1,-1,19,21,-1,23,25,27,-1,-1,29,-1,31,-1,-1,-1,-1,-1],"loss_changes":[3.584091E2,1.1584822E2,1.18386185E2,0E0,4.5730396E1,6.1977722E1,2.4532272E1,0E0,4.087249E0,5.8381355E1,0E0,2.1129913E1,0E0,0E0,0E0,0E0,0E0,9.275194E0,1.2835083E1,0E0,5.905425E0,2.53497E1,3.5175781E0,0E0,0E0,1.047513E1,0E0,4.7738647E-1,0E0,0E0,0E0,0E0,0E0],"parents":[2147483647,0,0,1,1,2,2,4,4,5,5,6,6,8,8,9,9,11,11,17,17,18,18,20,20,21,21,22,22,25,25,27,27],"right_children":[2,4,6,-1,8,10,12,-1,14,16,-1,18,-1,-1,-1,-1,-1,20,22,-1,24,26,28,-1,-1,30,-1,32,-1,-1,-1,-1,-1],"split_conditions":[3.0997982E-2,3.9743738E0,1.0957178E0,-3.4321022E-1,3.0303488E0,5.4168934E1,1.6E1,-2.1129937E-1,1.4873172E0,1.8412672E0,2.9845653E-2,1.0610592E-2,-6.466124E-2,-2.5990313E-2,4.4493195E-2,-0E0,-3.0216643E-1,8.4698014E-4,9.984355E-4,-7.142512E-2,9.50062E-1,1.0521368E-2,4.5E-2,6.990944E-2,-6.2231477E-3,1.2075896E0,-7.590333E-2,5.1590886E0,9.0482505E-3,7.7083886E-2,-6.2231477E-3,2.3390118E-2,8.634596E-2],"split_indices":[24,26,37,0,7,1,7,0,37,24,0,13,0,0,0,0,0,8,21,0,6,25,13,0,0,33,0,26,0,0,0,0,0],"split_type":[0,0,0,0,0,0,0,0,0,0,0,0,0,0,0,0,0,0,0,0,0,0,0,0,0,0,0,0,0,0,0,0,0],"sum_hessian":[3.731834E2,3.835809E1,3.3482532E2,1.608811E1,2.2269978E1,2.6459738E1,3.0836557E2,7.0066338E0,1.5263344E1,1.5528355E1,1.0931383E1,3.0197946E2,6.38612E0,6.9148493E0,8.348495E0,6.152135E0,9.376221E0,2.3164553E1,2.788149E2,6.538663E0,1.6625889E1,5.116911E1,2.276458E2,8.877224E0,7.748665E0,4.3033916E1,8.135193E0,2.1967348E2,7.972308E0,3.528525E1,7.748665E0,7.6672225E0,2.1200626E2],"tree_param":{"num_deleted":"0","num_feature":"40","num_nodes":"33","size_leaf_vector":"1"}},{"base_weights":[3.4251222E-1,-2.7842536E0,5.639989E-1,-2.873927E-1,-3.3454414E-2,-1.321676E-1,9.598033E-1,-1.7037263E0,4.2870635E-1,1.724223E-1,1.0170283E0,-3.070862E-1,-3.141963E-1,6.3382655E-1,-1.0482367E-1,5.4919533E-2,-2.0600218E-2,1.040778E0,-0E0,-9.357208E-2,2.3011139E-2,-2.4571675E-1,9.1113967E-1,1.566422E-2,1.0603207E0,-1.14108965E-1,5.2701805E-2,7.9098865E-2,-0E0,8.2926735E-2,1.0726791E-2],"categories":[],"categories_nodes":[],"categories_segments":[],"categories_sizes":[],"default_left":[0,0,0,0,0,0,0,0,0,0,0,0,0,0,0,0,0,0,0,0,0,0,0,0,0,0,0,0,0,0,0],"id":1,"left_children":[1,3,5,-1,-1,7,9,11,13,15,17,-1,19,21,-1,-1,-1,23,-1,-1,-1,25,27,-1,29,-1,-1,-1,-1,-1,-1],"loss_changes":[2.4719086E2,4.408922E1,9.4577965E1,0E0,0E0,1.1044408E2,7.5011444E0,9.696185E1,3.2910503E1,5.3791695E0,3.2267456E0,0E0,1.4534327E1,2.1516357E1,0E0,0E0,0E0,7.166443E-1,0E0,0E0,0E0,2.4913225E1,8.6059265E0,0E0,1.5089569E0,0E0,0E0,0E0,0E0,0E0,0E0],"parents":[2147483647,0,0,1,1,2,2,5,5,6,6,7,7,8,8,9,9,10,10,12,12,13,13,17,17,21,21,22,22,24,24],"right_children":[2,4,6,-1,-1,8,10,12,14,16,18,-1,20,22,-1,-1,-1,24,-1,-1,-1,26,28,-1,30,-1,-1,-1,-1,-1,-1],"split_conditions":[2.2321136E0,6.884E1,3.053608E-5,-2.873927E-1,-3.3454414E-2,3.0303488E0,5.154669E-3,7.3996475E-3,9.853461E-3,6.9361293E-1,1.71785E-2,-3.070862E-1,3.2744071E0,8.4698014E-4,-1.0482367E-1,5.4919533E-2,-2.0600218E-2,5.5033026E0,-0E0,-9.357208E-2,2.3011139E-2,6.668377E-3,1.9592712E0,1.566422E-2,4.287953E-2,-1.14108965E-1,5.2701805E-2,7.9098865E-2,-0E0,8.2926735E-2,1.0726791E-2],"split_indices":[26,15,38,0,0,7,20,29,36,22,36,0,22,8,0,0,0,26,0,0,0,36,5,0,13,0,0,0,0,0,0],"split_type":[0,0,0,0,0,0,0,0,0,0,0,0,0,0,0,0,0,0,0,0,0,0,0,0,0,0,0,0,0,0,0],"sum_hessian":[3.5856088E2,2.2281195E1,3.3627966E2,1.4748725E1,7.5324707E0,1.205944E2,2.1568527E2,3.1886885E1,8.870751E1,1.6991417E1,1.9869386E2,1.06727085E1,2.1214176E1,8.118286E1,7.5246506E0,9.028267E0,7.963151E0,1.9265387E2,6.0399857E0,9.226302E0,1.1987874E1,1.799593E1,6.3186935E1,6.737856E0,1.8591602E2,8.205151E0,9.790779E0,5.7015488E1,6.1714473E0,1.7950763E2,6.4083867E0],"tree_param":{"num_deleted":"0","num_feature":"40","num_nodes":"31","size_leaf_vector":"1"}},{"base_weights":[3.1992733E-1,-2.5017843E0,6.08934E-1,-2.4048306E-1,-1.4981693E-2,-2.0252604E0,7.8921974E-1,-2.6390672E-1,-0E0,-9.7569054E-1,8.9612544E-1,-1.6481788E-1,3.6430307E-2,1.0461683E0,4.4067812E-1,3.8346642E-1,8.2529716E-2,-1.00059204E-1,8.14936E-1,-0E0,4.6702564E-2,-0E0,9.169897E-1,7.611986E-3,7.519063E-2],"categories":[],"categories_nodes":[],"categories_segments":[],"categories_sizes":[],"default_left":[0,0,0,0,0,0,0,0,0,0,0,0,0,0,0,0,0,0,0,0,0,0,0,0,0],"id":2,"left_children":[1,3,5,-1,-1,7,9,-1,-1,11,13,-1,-1,15,17,19,-1,-1,21,-1,-1,-1,23,-1,-1],"loss_changes":[2.875647E2,4.140126E1,1.5317514E2,0E0,0E0,5.463595E1,5.823204E1,0E0,0E0,3.3138454E1,1.655037E1,0E0,0E0,1.3588867E0,5.031109E1,8.883083E-1,0E0,0E0,4.254219E0,0E0,0E0,0E0,9.581032E-1,0E0,0E0],"parents":[2147483647,0,0,1,1,2,2,5,5,6,6,9,9,10,10,13,13,14,14,15,15,18,18,22,22],"right_children":[2,4,6,-1,-1,8,10,-1,-1,12,14,-1,-1,16,18,20,-1,-1,22,-1,-1,-1,24,-1,-1],"split_conditions":[2.1348025E-4,2.55184E0,1.091E1,-2.4048306E-1,-1.4981693E-2,1.7583903E-4,9.0445304E-1,-2.6390672E-1,-0E0,4.7211742E1,9.929648E-1,-1.6481788E-1,3.6430307E-2,3.2617342E0,9.984355E-4,7.463939E0,8.2529716E-2,-1.00059204E-1,3.018268E0,-0E0,4.6702564E-2,-0E0,2.8019135E-3,7.611986E-3,7.519063E-2],"split_indices":[36,22,16,0,0,28,37,0,0,26,4,0,0,26,21,7,0,0,37,0,0,0,28,0,0],"split_type":[0,0,0,0,0,0,0,0,0,0,0,0,0,0,0,0,0,0,0,0,0,0,0,0,0],"sum_hessian":[3.531995E2,3.1402514E1,3.2179697E2,2.3675491E1,7.7270236E0,1.9209574E1,3.025874E2,1.0457477E1,8.752097E0,1.5798288E1,2.867891E2,9.066754E0,6.7315345E0,2.1168764E2,7.510148E1,1.2700915E1,1.9898671E2,1.190696E1,6.3194515E1,6.011437E0,6.6894784E0,8.476772E0,5.4717743E1,6.186341E0,4.8531403E1],"tree_param":{"num_deleted":"0","num_feature":"40","num_nodes":"25","size_leaf_vector":"1"}},{"base_weights":[3.128712E-1,-1.6144992E0,6.157337E-1,-2.672659E0,-2.868439E-1,9.06697E-1,-1.4136995E-1,-2.2903249E-1,-9.0401545E-2,-1.1055042E-1,4.6416655E-1,6.092127E-1,8.93197E-2,-1.3814762E0,5.958974E-1,-0E0,5.521683E-2,-0E0,7.342728E-2,-2.3779702E0,-2.6824546E-1,-1.6369304E-2,8.086923E-1,-9.602399E-2,4.9783528E-1,-2.4445331E-1,-8.567827E-2,-9.259436E-2,1.8183166E-2,-0E0,7.0676595E-2,7.506692E-2,-8.737389E-3],"categories":[],"categories_nodes":[],"categories_segments":[],"categories_sizes":[],"default_left":[0,0,0,0,0,0,0,0,0,0,0,0,0,0,0,0,0,0,0,0,0,0,0,0,0,0,0,0,0,0,0,0,0],"id":3,"left_children":[1,3,5,7,9,11,13,-1,-1,-1,15,17,-1,19,21,-1,-1,23,-1,25,27,-1,29,-1,31,-1,-1,-1,-1,-1,-1,-1,-1],"loss_changes":[2.0338472E2,5.9973473E1,6.834823E1,4.9394226E-1,2.2398914E1,1.311821E1,7.883801E1,0E0,0E0,0E0,1.0178666E0,2.2315563E1,0E0,3.0624805E1,1.0270647E1,0E0,0E0,2.6099958E1,0E0,4.768944E0,1.0345053E1,0E0,2.7870579E0,0E0,1.0810343E1,0E0,0E0,0E0,0E0,0E0,0E0,0E0,0E0],"parents":[2147483647,0,0,1,1,2,2,3,3,4,4,5,5,6,6,10,10,11,11,13,13,14,14,17,17,19,19,20,20,22,22,24,24],"right_children":[2,4,6,8,10,12,14,-1,-1,-1,16,18,-1,20,22,-1,-1,24,-1,26,28,-1,30,-1,32,-1,-1,-1,-1,-1,-1,-1,-1],"split_conditions":[3.0997982E-2,6.013569E0,1E0,1.3620535E-2,8.4698014E-4,3.363163E-3,9.8356754E-1,-2.2903249E-1,-9.0401545E-2,-1.1055042E-1,5.556265E-3,3.053608E-5,8.93197E-2,5.414628E0,1.1031239E0,-0E0,5.521683E-2,8.4698014E-4,7.342728E-2,1.0837652E-2,5.537486E-3,-1.6369304E-2,5.576229E-1,-9.602399E-2,9.8621076E-1,-2.4445331E-1,-8.567827E-2,-9.259436E-2,1.8183166E-2,-0E0,7.0676595E-2,7.506692E-2,-8.737389E-3],"split_indices":[24,7,4,36,8,4,32,0,0,0,36,38,0,19,7,0,0,8,0,3,29,0,34,0,6,0,0,0,0,0,0,0,0],"split_type":[0,0,0,0,0,0,0,0,0,0,0,0,0,0,0,0,0,0,0,0,0,0,0,0,0,0,0,0,0,0,0,0,0],"sum_hessian":[3.4813812E2,4.579286E1,3.0234528E2,2.4078888E1,2.1713968E1,2.1988977E2,8.24555E1,1.7910273E1,6.1686163E0,9.022673E0,1.2691295E1,1.0736888E2,1.1252089E2,3.1228096E1,5.12274E1,6.1717453E0,6.51955E0,4.04133E1,6.695558E1,1.4936173E1,1.6291922E1,8.967023E0,4.2260376E1,1.0503055E1,2.9910246E1,7.1217504E0,7.8144236E0,6.3100443E0,9.981877E0,6.790408E0,3.546997E1,1.7909948E1,1.20002985E1],"tree_param":{"num_deleted":"0","num_feature":"40","num_nodes":"33","size_leaf_vector":"1"}},{"base_weights":[1.9543912E-1,-1.553925E0,5.505923E-1,-2.6076546E0,-0E0,-1.2336013E0,7.105637E-1,-2.2737741E-1,-4.951028E-2,-9.770285E-2,5.9860325E-1,-1.73032E-1,1.291874E-2,2.545272E-1,9.77525E-1,-0E0,6.978644E-2,-1.311367E0,5.642427E-1,1.9221473E-2,1.0045837E0,-4.2143282E-3,-1.8701674E-1,8.387616E-1,-2.5225124E-1,7.8882426E-2,1.8041331E-2,-1.8921203E-3,7.524866E-2,-7.933631E-2,5.523689E-2],"categories":[],"categories_nodes":[],"categories_segments":[],"categories_sizes":[],"default_left":[0,0,0,0,0,0,0,0,0,0,0,0,0,0,0,0,0,0,0,0,0,0,0,0,0,0,0,0,0,0,0],"id":4,"left_children":[1,3,5,7,9,11,13,-1,-1,-1,15,-1,-1,17,19,-1,-1,21,23,-1,25,-1,-1,27,29,-1,-1,-1,-1,-1,-1],"loss_changes":[2.0668053E2,8.8453705E1,7.983216E1,1.4634262E1,2.0153896E1,3.644583E1,2.8960083E1,0E0,0E0,0E0,2.756104E0,0E0,0E0,4.7723026E1,6.645813E-1,0E0,0E0,1.797559E1,2.0235987E1,0E0,4.3530273E-1,0E0,0E0,9.762787E0,1.71679E1,0E0,0E0,0E0,0E0,0E0,0E0],"parents":[2147483647,0,0,1,1,2,2,3,3,4,4,5,5,6,6,10,10,13,13,14,14,17,17,18,18,20,20,23,23,24,24],"right_children":[2,4,6,8,10,12,14,-1,-1,-1,16,-1,-1,18,20,-1,-1,22,24,-1,26,-1,-1,28,30,-1,-1,-1,-1,-1,-1],"split_conditions":[2.0036867E1,1.7583903E-4,9.0445304E-1,8.1042044E-2,5.419E1,2.0648065E2,1.4314308E2,-2.2737741E-1,-4.951028E-2,-9.770285E-2,2.8446195E-1,-1.73032E-1,1.291874E-2,5.154669E-3,1.11E0,-0E0,6.978644E-2,3.246611E1,9.860011E-1,1.9221473E-2,1.0648696E-1,-4.2143282E-3,-1.8701674E-1,9.9481806E-2,5.350355E-3,7.8882426E-2,1.8041331E-2,-1.8921203E-3,7.524866E-2,-7.933631E-2,5.523689E-2],"split_indices":[16,28,37,27,15,16,16,0,0,0,39,0,0,20,14,0,0,16,3,0,27,0,0,39,27,0,0,0,0,0,0],"split_type":[0,0,0,0,0,0,0,0,0,0,0,0,0,0,0,0,0,0,0,0,0,0,0,0,0,0,0,0,0,0,0],"sum_hessian":[3.3260208E2,5.4621143E1,2.7798096E2,3.1629236E1,2.2991905E1,2.1318096E1,2.5666284E2,2.5453466E1,6.17577E0,7.514582E0,1.5477324E1,1.2605304E1,8.712792E0,9.803397E1,1.5862888E2,6.155217E0,9.322106E0,1.4622484E1,8.341149E1,8.436937E0,1.5019194E2,8.24627E0,6.376214E0,6.3986927E1,1.9424568E1,1.4287576E2,7.3161693E0,7.537587E0,5.6449337E1,1.1706003E1,7.718564E0],"tree_param":{"num_deleted":"0","num_feature":"40","num_nodes":"31","size_leaf_vector":"1"}},{"base_weights":[3.0853933E-1,-1.4217159E0,5.795104E-1,-0E0,-1.8142387E0,8.7614566E-1,-1.5849185E-1,-1.780537E-1,-0E0,-2.289995E-2,9.4521445E-1,-1.8045622E-1,3.3749294E-1,8.609912E-2,6.855534E-1,-7.419117E-2,6.3577396E-1,-0E0,9.532579E-1,-1.196565E-3,8.098012E-1,6.316717E-1,-1.05994955E-1,7.771169E-2,4.92006E-3,7.0301734E-2,-0E0,-0E0,6.734204E-2],"categories":[],"categories_nodes":[],"categories_segments":[],"categories_sizes":[],"default_left":[0,0,0,0,0,0,0,0,0,0,0,0,0,0,0,0,0,0,0,0,0,0,0,0,0,0,0,0,0],"id":5,"left_children":[1,3,5,-1,7,9,11,-1,-1,-1,13,-1,15,-1,17,-1,19,21,23,-1,25,27,-1,-1,-1,-1,-1,-1,-1],"loss_changes":[1.6019572E2,2.519886E1,6.664718E1,0E0,3.2716125E1,1.8861526E1,9.683559E1,0E0,0E0,0E0,5.410721E0,0E0,2.726519E1,0E0,1.7477627E1,0E0,8.0161915E0,2.4095783E1,1.6342812E0,0E0,3.7367382E0,1.479558E0,0E0,0E0,0E0,0E0,0E0,0E0,0E0],"parents":[2147483647,0,0,1,1,2,2,4,4,5,5,6,6,10,10,12,12,14,14,16,16,17,17,18,18,20,20,21,21],"right_children":[2,4,6,-1,8,10,12,-1,-1,-1,14,-1,16,-1,18,-1,20,22,24,-1,26,28,-1,-1,-1,-1,-1,-1,-1],"split_conditions":[9.718515E-1,4.57E0,9.929648E-1,-0E0,5.55607E-3,2.1348025E-4,2.1311722E0,-1.780537E-1,-0E0,-2.289995E-2,1E0,-1.8045622E-1,2.811518E-1,8.609912E-2,2.0116882E-2,-7.419117E-2,3.1022665E-1,2E-2,4.885472E0,-1.196565E-3,3.880463E-2,1.09744705E-2,-1.05994955E-1,7.771169E-2,4.92006E-3,7.0301734E-2,-0E0,-0E0,6.734204E-2],"split_indices":[37,9,4,0,38,36,37,0,0,0,3,0,11,0,13,0,34,13,22,0,13,13,0,0,0,0,0,0,0],"split_type":[0,0,0,0,0,0,0,0,0,0,0,0,0,0,0,0,0,0,0,0,0,0,0,0,0,0,0,0,0],"sum_hessian":[3.4147568E2,4.4679707E1,2.9679596E2,1.0050159E1,3.4629547E1,2.1321706E2,8.35789E1,2.6688766E1,7.940781E0,1.0222414E1,2.0299464E2,1.5206452E1,6.837245E1,1.1393821E2,8.9056435E1,1.1130989E1,5.7241463E1,2.4342892E1,6.471354E1,1.0200463E1,4.7041E1,1.6685963E1,7.6569285E0,5.856962E1,6.14392E0,4.080551E1,6.2354884E0,6.7357135E0,9.950249E0],"tree_param":{"num_deleted":"0","num_feature":"40","num_nodes":"29","size_leaf_vector":"1"}},{"base_weights":[2.742866E-1,-1.4612807E0,5.2162296E-1,-1.5976186E-1,-3.0371422E-1,-1.4376147E-1,6.0397035E-1,2.5779115E-2,-7.698353E-2,-7.5603735E-1,6.867171E-1,-1.604737E-1,2.7807115E-2,1.2381442E-1,8.2148796E-1,4.782552E-1,-1.4619772E-1,8.6113386E-2,5.507355E-1,-2.3153119E-1,8.3072066E-1,7.326825E-1,-5.588952E-2,-8.710689E-2,3.7746824E-2,-0E0,7.328312E-2,8.520244E-1,-0E0,-9.758379E-2,5.168576E-1,-0E0,7.406017E-2,-3.1377345E-2,2.5316378E-2,6.8471186E-2,-0E0],"categories":[],"categories_nodes":[],"categories_segments":[],"categories_sizes":[],"default_left":[0,0,0,0,0,0,0,0,0,0,0,0,0,0,0,0,0,0,0,0,0,0,0,0,0,0,0,0,0,0,0,0,0,0,0,0,0],"id":6,"left_children":[1,3,5,-1,7,-1,9,-1,-1,11,13,-1,-1,15,17,19,-1,-1,21,23,25,27,29,-1,-1,-1,-1,31,33,-1,35,-1,-1,-1,-1,-1,-1],"loss_changes":[1.4363585E2,2.4997993E1,5.762784E1,0E0,9.139863E0,0E0,3.28985E1,0E0,0E0,2.7702526E1,1.896428E1,0E0,0E0,3.9436836E1,1.418837E1,1.3763012E1,0E0,0E0,1.4496506E1,1.2203365E1,2.1058464E0,8.908047E0,2.0706165E1,0E0,0E0,0E0,0E0,7.942074E0,2.0647657E0,0E0,4.2892838E0,0E0,0E0,0E0,0E0,0E0,0E0],"parents":[2147483647,0,0,1,1,2,2,4,4,6,6,9,9,10,10,13,13,14,14,15,15,18,18,19,19,20,20,21,21,22,22,27,27,28,28,30,30],"right_children":[2,4,6,-1,8,-1,10,-1,-1,12,14,-1,-1,16,18,20,-1,-1,22,24,26,28,30,-1,-1,-1,-1,32,34,-1,36,-1,-1,-1,-1,-1,-1],"split_conditions":[2.1348025E-4,2.5642548E1,2.9270083E-1,-1.5976186E-1,2.1597008E1,-1.4376147E-1,2.184459E0,2.5779115E-2,-7.698353E-2,1.5117268E2,1.0837652E-2,-1.604737E-1,2.7807115E-2,1.0215544E-2,9.865152E-1,9.2464024E-1,-1.4619772E-1,8.6113386E-2,2E0,9.833643E-3,1.3579026E0,3.973633E-2,5.3174767E1,-8.710689E-2,3.7746824E-2,-0E0,7.328312E-2,1.3E0,4.57198E0,-9.758379E-2,7.0678926E-1,-0E0,7.406017E-2,-3.1377345E-2,2.5316378E-2,6.8471186E-2,-0E0],"split_indices":[36,26,37,0,2,0,26,0,0,10,3,0,0,36,3,32,0,0,5,38,20,13,1,0,0,0,0,14,37,0,6,0,0,0,0,0,0],"split_type":[0,0,0,0,0,0,0,0,0,0,0,0,0,0,0,0,0,0,0,0,0,0,0,0,0,0,0,0,0,0,0,0,0,0,0,0,0],"sum_hessian":[3.3506088E2,4.0183968E1,2.9487692E2,2.450977E1,1.5674198E1,8.221384E0,2.8665552E2,7.228493E0,8.445705E0,1.4678875E1,2.7197665E2,6.9111905E0,7.7676845E0,5.5466866E1,2.1650978E2,4.8737846E1,6.7290187E0,9.744028E1,1.190695E2,1.467773E1,3.406012E1,9.360126E1,2.5468248E1,7.2812324E0,7.3964977E0,6.366163E0,2.7693956E1,8.117421E1,1.2427048E1,8.64309E0,1.6825157E1,9.8867035E0,7.1287506E1,6.40161E0,6.0254383E0,1.0196432E1,6.628725E0],"tree_param":{"num_deleted":"0","num_feature":"40","num_nodes":"37","size_leaf_vector":"1"}},{"base_weights":[2.159849E-1,-1.3777621E0,4.9581286E-1,-0E0,-1.4588055E-1,-1.437486E0,6.3891786E-1,-4.0834486E-2,4.3119363E-2,-1.8285824E-1,-3.5073142E-3,-8.886341E-2,7.1256334E-1,3.3784753E-1,9.6974516E-1,-1.2152795E-1,5.345777E-1,4.7817895E-1,1.0248438E0,-4.6016973E-2,7.243349E-1,-1.1053092E-2,7.167822E-2,8.186482E-2,-0E0,8.3576256E-1,-2.2120336E-2,-0E0,7.5010285E-2],"categories":[],"categories_nodes":[],"categories_segments":[],"categories_sizes":[],"default_left":[0,0,0,0,0,0,0,0,0,0,0,0,0,0,0,0,0,0,0,0,0,0,0,0,0,0,0,0,0],"id":7,"left_children":[1,3,5,7,-1,9,11,-1,-1,-1,-1,-1,13,15,17,-1,19,21,23,-1,25,-1,-1,-1,-1,27,-1,-1,-1],"loss_changes":[1.3901321E2,3.3493896E1,7.3952065E1,4.5518465E0,0E0,1.9472534E1,3.3534363E1,0E0,0E0,0E0,0E0,0E0,2.0784058E1,3.8411716E1,6.224823E-1,0E0,2.135304E1,7.1199303E0,4.1426697E0,0E0,1.0702797E1,0E0,0E0,0E0,0E0,1.0633743E1,0E0,0E0,0E0],"parents":[2147483647,0,0,1,1,2,2,3,3,5,5,6,6,12,12,13,13,14,14,16,16,17,17,18,18,20,20,25,25],"right_children":[2,4,6,8,-1,10,12,-1,-1,-1,-1,-1,14,16,18,-1,20,22,24,-1,26,-1,-1,-1,-1,28,-1,-1,-1],"split_conditions":[8.7955105E-1,4.897683E0,8.98E0,1.565748E2,-1.4588055E-1,9.162617E0,2.2321136E0,-4.0834486E-2,4.3119363E-2,-1.8285824E-1,-3.5073142E-3,-8.886341E-2,1.386E2,2.7E-1,9.527757E-1,-1.2152795E-1,5.154669E-3,1.0366832E0,1.3720796E1,-4.6016973E-2,2.8004448E1,-1.1053092E-2,7.167822E-2,8.186482E-2,-0E0,1.1031239E0,-2.2120336E-2,-0E0,7.5010285E-2],"split_indices":[37,9,16,16,0,7,26,0,0,0,0,0,16,11,22,0,20,5,7,0,2,0,0,0,0,7,0,0,0],"split_type":[0,0,0,0,0,0,0,0,0,0,0,0,0,0,0,0,0,0,0,0,0,0,0,0,0,0,0,0,0],"sum_hessian":[3.1208844E2,4.4982857E1,2.6710556E2,1.2768645E1,3.221421E1,1.6825071E1,2.502805E2,6.5920744E0,6.176571E0,8.751082E0,8.073989E0,8.220973E0,2.4205952E2,1.0239161E2,1.3966792E2,7.8932405E0,9.449837E1,1.8418955E1,1.2124896E2,1.1853196E1,8.264517E1,6.5465903E0,1.1872364E1,1.1505889E2,6.1900697E0,7.61859E1,6.459275E0,9.908449E0,6.627745E1],"tree_param":{"num_deleted":"0","num_feature":"40","num_nodes":"29","size_leaf_vector":"1"}},{"base_weights":[2.1916743E-1,-9.35452E-1,5.385046E-1,-1.6716747E0,5.3344723E-2,-1.0054811E0,7.071979E-1,-1.6148734E-1,-1.8637E-2,-8.6638525E-2,5.9683487E-2,-1.3090329E-1,-1.2756746E-2,-4.9627677E-2,7.705696E-1,8.2138085E-1,-4.0893257E-2,-0E0,8.779633E-1,-3.614871E-2,3.7096858E-2,5.4418457E-1,9.6567065E-1,-1.980244E-2,7.227219E-1,7.6745085E-2,2.5147365E-2,-0E0,6.4409636E-2],"categories":[],"categories_nodes":[],"categories_segments":[],"categories_sizes":[],"default_left":[0,0,0,0,0,0,0,0,0,0,0,0,0,0,0,0,0,0,0,0,0,0,0,0,0,0,0,0,0],"id":8,"left_children":[1,3,5,7,9,11,13,-1,-1,-1,-1,-1,-1,-1,15,17,-1,19,21,-1,-1,23,25,-1,27,-1,-1,-1,-1],"loss_changes":[1.1283756E2,5.0676544E1,6.3328064E1,1.9394325E1,2.4654266E1,1.0158688E1,1.968119E1,0E0,0E0,0E0,0E0,0E0,0E0,0E0,1.5055229E1,9.386475E0,0E0,3.6264951E0,2.374771E0,0E0,0E0,7.739506E0,6.680603E-1,0E0,3.2092476E0,0E0,0E0,0E0,0E0],"parents":[2147483647,0,0,1,1,2,2,3,3,4,4,5,5,6,6,14,14,15,15,17,17,18,18,21,21,22,22,24,24],"right_children":[2,4,6,8,10,12,14,-1,-1,-1,-1,-1,-1,-1,16,18,-1,20,22,-1,-1,24,26,-1,28,-1,-1,-1,-1],"split_conditions":[2.077E1,1.7583903E-4,9.0445304E-1,2.8635211E-5,6.013569E0,1.6337414E0,5.2888274E-1,-1.6148734E-1,-1.8637E-2,-8.6638525E-2,5.9683487E-2,-1.3090329E-1,-1.2756746E-2,-4.9627677E-2,1.4320805E-2,2.1348025E-4,-4.0893257E-2,1.3064271E-2,8.4698014E-4,-3.614871E-2,3.7096858E-2,1.5317552E-1,1.4E1,-1.980244E-2,4.61E0,7.6745085E-2,2.5147365E-2,-0E0,6.4409636E-2],"split_indices":[16,28,37,27,7,24,22,0,0,0,0,0,0,0,36,36,0,25,8,0,0,20,7,0,19,0,0,0,0],"split_type":[0,0,0,0,0,0,0,0,0,0,0,0,0,0,0,0,0,0,0,0,0,0,0,0,0,0,0,0,0],"sum_hessian":[3.0505118E2,6.441243E1,2.4063876E2,3.7450115E1,2.6962318E1,2.2103254E1,2.185355E2,2.7321802E1,1.0128313E1,9.082564E0,1.7879753E1,1.0223301E1,1.1879954E1,8.047345E0,2.1048816E2,2.0430278E2,6.1853867E0,1.3457678E1,1.908451E2,6.635516E0,6.8221617E0,4.562558E1,1.4521951E2,6.438433E0,3.9187145E1,1.3421762E2,1.10019E1,6.002806E0,3.3184338E1],"tree_param":{"num_deleted":"0","num_feature":"40","num_nodes":"29","size_leaf_vector":"1"}},{"base_weights":[1.8704559E-1,6.2532467E-1,-5.830522E-1,2.01708E-1,8.4454596E-2,-1.561339E0,1.226998E-1,-1.0002422E-1,4.1683412E-1,-2.6606593E-1,-1.5830046E-1,-7.7238244E-1,5.481224E-1,-2.3393427E-1,6.259508E-1,-6.525681E-2,1.7348805E-2,-1.12564534E-1,5.8317054E-3,7.0618445E-1,-9.372668E-3,-5.9710197E-2,2.1452745E-2,3.1032264E-2,8.087909E-1,6.407454E-2,-0E0,-2.8810438E-2,4.4073E-2,7.930962E-2,3.4707052E-1,-0E0,5.6967784E-2],"categories":[],"categories_nodes":[],"categories_segments":[],"categories_sizes":[],"default_left":[0,0,0,0,0,0,0,0,0,0,0,0,0,0,0,0,0,0,0,0,0,0,0,0,0,0,0,0,0,0,0,0,0],"id":9,"left_children":[1,3,5,7,-1,9,11,-1,13,15,-1,17,19,21,23,-1,-1,-1,-1,25,-1,-1,-1,27,29,-1,-1,-1,-1,-1,31,-1,-1],"loss_changes":[1.00346436E2,3.597589E1,7.6233986E1,3.2937847E1,0E0,2.5212769E1,2.370555E1,0E0,1.3538042E1,5.6918106E0,0E0,1.3866916E1,5.7780123E0,7.1619296E0,6.441841E0,0E0,0E0,0E0,0E0,3.2202644E0,0E0,0E0,0E0,5.171419E0,2.7633667E0,0E0,0E0,0E0,0E0,0E0,3.1423395E0,0E0,0E0],"parents":[2147483647,0,0,1,1,2,2,3,3,5,5,6,6,8,8,9,9,11,11,12,12,13,13,14,14,19,19,23,23,24,24,30,30],"right_children":[2,4,6,8,-1,10,12,-1,14,16,-1,18,20,22,24,-1,-1,-1,-1,26,-1,-1,-1,28,30,-1,-1,-1,-1,-1,32,-1,-1],"split_conditions":[9.929648E-1,3.363163E-3,2.5030653E0,2.1348025E-4,8.4454596E-2,7.575903E-1,1.7583903E-4,-1.0002422E-1,1.5158379E0,9.8356754E-1,-1.5830046E-1,7.234332E-1,3.9122663E-2,1.7583903E-4,1.6611114E-2,-6.525681E-2,1.7348805E-2,-1.12564534E-1,5.8317054E-3,4.7783237E-2,-9.372668E-3,-5.9710197E-2,2.1452745E-2,2.3093042E0,4.389266E0,6.407454E-2,-0E0,-2.8810438E-2,4.4073E-2,7.930962E-2,4.743898E0,-0E0,5.6967784E-2],"split_indices":[4,4,37,36,0,18,28,0,14,32,0,39,13,28,23,0,0,0,0,28,0,0,0,14,20,0,0,0,0,0,33,0,0],"split_type":[0,0,0,0,0,0,0,0,0,0,0,0,0,0,0,0,0,0,0,0,0,0,0,0,0,0,0,0,0,0,0,0,0],"sum_hessian":[2.945892E2,1.8931917E2,1.0527004E2,1.03105545E2,8.621362E1,4.453477E1,6.073527E1,1.1110556E1,9.1994995E1,1.3968887E1,3.0565884E1,1.7939108E1,4.2796165E1,2.0323067E1,7.167193E1,7.5867233E0,6.382164E0,1.0487374E1,7.4517336E0,3.6670773E1,6.1253924E0,1.119333E1,9.129736E0,1.940702E1,5.2264904E1,3.0402275E1,6.268498E0,9.494074E0,9.912946E0,3.1548063E1,2.0716843E1,1.1460998E1,9.255845E0],"tree_param":{"num_deleted":"0","num_feature":"40","num_nodes":"33","size_leaf_vector":"1"}},{"base_weights":[2.023E-1,-1.2774352E0,4.3603313E-1,-1.3181344E-1,-1.2434941E-1,-2.1112494E-1,7.60218E-1,-5.7970323E-2,2.3836764E-2,-1.0791317E0,2.1925777E-2,-3.196425E-2,8.2497406E-1,-1.375306E-1,-0E0,4.7194004E-1,-5.1400954E-1,3.5519513E-1,9.524441E-1,-2.2359416E-2,7.360978E-1,-1.4683586E-1,7.3182866E-2,6.846561E-1,-2.3274347E-2,7.7198595E-2,3.0540207E-1,6.799763E-2,7.7683246E-3,-5.0173484E-2,5.381366E-1,-0E0,6.699445E-2,-0E0,4.847642E-2,5.975528E-2,-0E0],"categories":[],"categories_nodes":[],"categories_segments":[],"categories_sizes":[],"default_left":[0,0,0,0,0,0,0,0,0,0,0,0,0,0,0,0,0,0,0,0,0,0,0,0,0,0,0,0,0,0,0,0,0,0,0,0,0],"id":10,"left_children":[1,3,5,-1,7,9,11,-1,-1,13,15,-1,17,-1,-1,19,21,23,25,-1,27,-1,29,31,-1,-1,33,-1,-1,-1,35,-1,-1,-1,-1,-1,-1],"loss_changes":[1.02409836E2,1.6983124E1,5.5604477E1,0E0,4.7681847E0,1.9214968E1,1.4462769E1,0E0,0E0,1.3075035E1,1.643538E1,0E0,7.368431E0,0E0,0E0,8.88312E0,2.7665524E1,9.725275E0,1.9387512E0,0E0,1.1545334E0,0E0,7.360269E0,4.0352993E0,0E0,0E0,1.9692283E0,0E0,0E0,0E0,7.257986E-1,0E0,0E0,0E0,0E0,0E0,0E0],"parents":[2147483647,0,0,1,1,2,2,4,4,5,5,6,6,9,9,10,10,12,12,15,15,16,16,17,17,18,18,20,20,22,22,23,23,26,26,30,30],"right_children":[2,4,6,-1,8,10,12,-1,-1,14,16,-1,18,-1,-1,20,22,24,26,-1,28,-1,30,32,-1,-1,34,-1,-1,-1,36,-1,-1,-1,-1,-1,-1],"split_conditions":[2.1348025E-4,7.0711884E0,9.984355E-4,-1.3181344E-1,1.255828E1,3.4033868E0,7.0352037E-3,-5.7970323E-2,2.3836764E-2,5.052196E0,8.639068E-3,-3.196425E-2,8.4698014E-4,-1.375306E-1,-0E0,1.1031239E0,4.03E1,1.7915489E-1,9.886463E-1,-2.2359416E-2,2.572E1,-1.4683586E-1,6.948621E-1,4.68E0,-2.3274347E-2,7.7198595E-2,6.951185E1,6.799763E-2,7.7683246E-3,-5.0173484E-2,9.724265E-1,-0E0,6.699445E-2,-0E0,4.847642E-2,5.975528E-2,-0E0],"split_indices":[36,7,21,0,23,26,17,0,0,19,36,0,8,0,0,7,15,21,0,0,2,0,32,19,0,0,15,0,0,0,22,0,0,0,0,0,0],"split_type":[0,0,0,0,0,0,0,0,0,0,0,0,0,0,0,0,0,0,0,0,0,0,0,0,0,0,0,0,0,0,0,0,0,0,0,0,0],"sum_hessian":[2.9717532E2,3.8794178E1,2.5838113E2,2.6511896E1,1.228228E1,8.459096E1,1.7379018E2,6.2697663E0,6.012514E0,1.855412E1,6.6036835E1,7.3239756E0,1.664662E2,9.994002E0,8.560117E0,3.77309E1,2.8305939E1,3.9400787E1,1.2706542E2,7.978233E0,2.9752666E1,8.420381E0,1.988556E1,2.7989527E1,1.1411262E1,1.1398894E2,1.307648E1,2.1429964E1,8.322701E0,6.106321E0,1.3779238E1,6.0207405E0,2.1968786E1,6.034139E0,7.0423408E0,7.122093E0,6.6571445E0],"tree_param":{"num_deleted":"0","num_feature":"40","num_nodes":"37","size_leaf_vector":"1"}},{"base_weights":[2.9742703E-1,-5.7004714E-1,6.976362E-1,-1.1201115E0,4.631002E-1,-6.183375E-2,7.933319E-1,-1.4129838E0,7.0990277E-3,6.592201E-2,-4.4012696E-2,-0E0,8.749319E-1,-1.5380642E-1,-3.461857E-1,-6.3162E-2,4.1964248E-2,5.612508E-3,9.226388E-1,-8.217585E-2,3.5458826E-2,9.514774E-1,8.733543E-3,4.448649E-1,1.0065933E0,-2.2033947E-4,5.8779556E-2,7.903621E-2,1.1491309E-2],"categories":[],"categories_nodes":[],"categories_segments":[],"categories_sizes":[],"default_left":[0,0,0,0,0,0,0,0,0,0,0,0,0,0,0,0,0,0,0,0,0,0,0,0,0,0,0,0,0],"id":11,"left_children":[1,3,5,7,9,-1,11,13,-1,-1,-1,15,17,-1,19,-1,-1,-1,21,-1,-1,23,-1,25,27,-1,-1,-1,-1],"loss_changes":[1.0303127E2,5.424472E1,3.0065514E1,2.4363632E1,1.4218902E1,0E0,1.1874153E1,2.7396126E1,0E0,0E0,0E0,9.391784E0,4.859375E0,0E0,1.3833331E1,0E0,0E0,0E0,1.8100739E0,0E0,0E0,1.2622681E0,0E0,4.2716074E0,6.724701E-1,0E0,0E0,0E0,0E0],"parents":[2147483647,0,0,1,1,2,2,3,3,4,4,6,6,7,7,11,11,12,12,14,14,18,18,21,21,23,23,24,24],"right_children":[2,4,6,8,10,-1,12,14,-1,-1,-1,16,18,-1,20,-1,-1,-1,22,-1,-1,24,-1,26,28,-1,-1,-1,-1],"split_conditions":[3.633E1,2.8635211E-5,2.2321136E0,3.4663567E1,1.4004415E-1,-6.183375E-2,1.5728259E-4,2.3581362E0,7.0990277E-3,6.592201E-2,-4.4012696E-2,1.386E2,1.0610592E-2,-1.5380642E-1,3.363163E-3,-6.3162E-2,4.1964248E-2,5.612508E-3,4.5E-2,-8.217585E-2,3.5458826E-2,5.154669E-3,8.733543E-3,6.915212E-1,5.23E0,-2.2033947E-4,5.8779556E-2,7.903621E-2,1.1491309E-2],"split_indices":[16,27,26,23,27,0,25,14,0,0,0,16,13,0,0,0,0,0,13,0,0,20,0,8,12,0,0,0,0],"split_type":[0,0,0,0,0,0,0,0,0,0,0,0,0,0,0,0,0,0,0,0,0,0,0,0,0,0,0,0,0],"sum_hessian":[2.9355768E2,9.1148895E1,2.0240877E2,6.0508675E1,3.064022E1,1.0485843E1,1.9192293E2,4.972948E1,1.0779193E1,2.351087E1,7.1293497E0,1.8832027E1,1.730909E2,3.0207407E1,1.9522076E1,6.751887E0,1.2080141E1,1.1932735E1,1.6115816E2,1.1207792E1,8.314282E0,1.533351E2,7.8230667E0,1.9199049E1,1.3413605E2,6.2862625E0,1.29127865E1,1.281194E2,6.0166435E0],"tree_param":{"num_deleted":"0","num_feature":"40","num_nodes":"29","size_leaf_vector":"1"}},{"base_weights":[2.3174423E-1,-3.3254448E-1,8.935943E-1,2.7028203E-1,-1.0675951E0,2.472562E-1,7.6652706E-2,-2.9166472E-1,7.99421E-2,-1.5448433E0,-1.3745676E-1,5.6043178E-2,-1.5507264E-2,-9.8532414E-1,5.5256497E-2,-1.2876968E-1,-3.9177313E-2,-9.3425535E-2,4.4848245E-1,-1.2172544E-1,4.052067E-3,-0E0,6.3636065E-2],"categories":[],"categories_nodes":[],"categories_segments":[],"categories_sizes":[],"default_left":[0,0,0,0,0,0,0,0,0,0,0,0,0,0,0,0,0,0,0,0,0,0,0],"id":12,"left_children":[1,3,5,7,9,11,-1,13,-1,15,17,-1,-1,19,-1,-1,-1,-1,21,-1,-1,-1,-1],"loss_changes":[1.0509593E2,6.7945206E1,6.500084E0,3.7196182E1,2.7403145E1,5.950265E0,0E0,3.433164E1,0E0,1.3761215E0,1.8417055E1,0E0,0E0,2.1194813E1,0E0,0E0,0E0,0E0,3.560073E0,0E0,0E0,0E0,0E0],"parents":[2147483647,0,0,1,1,2,2,3,3,4,4,5,5,7,7,9,9,10,10,13,13,18,18],"right_children":[2,4,6,8,10,12,-1,14,-1,16,18,-1,-1,20,-1,-1,-1,-1,22,-1,-1,-1,-1],"split_conditions":[1.386E2,1E0,8.76259E-1,3.363163E-3,3.43359E0,2.808E1,7.6652706E-2,2.8635211E-5,7.99421E-2,1.17691765E1,5.37E0,5.6043178E-2,-1.5507264E-2,3.053608E-5,5.5256497E-2,-1.2876968E-1,-3.9177313E-2,-9.3425535E-2,2.059762E1,-1.2172544E-1,4.052067E-3,-0E0,6.3636065E-2],"split_indices":[16,4,22,4,37,15,0,27,0,20,19,0,0,38,0,0,0,0,20,0,0,0,0],"split_type":[0,0,0,0,0,0,0,0,0,0,0,0,0,0,0,0,0,0,0,0,0,0,0],"sum_hessian":[2.7663934E2,1.4823552E2,1.2840382E2,8.056571E1,6.766981E1,2.1095484E1,1.0730834E2,4.579266E1,3.4773052E1,4.2966816E1,2.4702993E1,1.1649019E1,9.446465E0,2.8214293E1,1.757837E1,3.5823837E1,7.1429787E0,9.259891E0,1.5443103E1,1.8493992E1,9.7203E0,6.633085E0,8.810019E0],"tree_param":{"num_deleted":"0","num_feature":"40","num_nodes":"23","size_leaf_vector":"1"}},{"base_weights":[1.9278833E-1,-3.4059206E-1,7.046302E-1,-1.0838598E0,-5.471495E-3,8.376905E-1,9.28919E-2,-0E0,-1.308107E0,-5.202059E-1,3.6853004E-1,5.343098E-1,7.570903E-2,-4.5162275E-2,4.8716897E-1,-9.02209E-3,-1.20199084E-1,-1.1011361E0,-9.509858E-3,-3.874593E-1,6.854798E-1,-1.0578748E-2,6.474014E-2,-0E0,6.279091E-2,-3.4749252E-3,-1.3214743E-1,4.305849E-2,-4.3428499E-1,-0E0,-7.611176E-2,6.816067E-2,-6.0113072E-3,2.9204958E-3,-8.888089E-2],"categories":[],"categories_nodes":[],"categories_segments":[],"categories_sizes":[],"default_left":[0,0,0,0,0,0,0,0,0,0,0,0,0,0,0,0,0,0,0,0,0,0,0,0,0,0,0,0,0,0,0,0,0,0,0],"id":13,"left_children":[1,3,5,7,9,11,13,-1,15,17,19,21,-1,-1,23,-1,-1,25,27,29,31,-1,-1,-1,-1,-1,-1,-1,33,-1,-1,-1,-1,-1,-1],"loss_changes":[7.375363E1,3.0436312E1,9.542862E0,1.02849655E1,1.8257502E1,1.7982101E0,7.8000093E0,0E0,6.976631E0,1.0310246E1,1.3342957E1,1.0402628E1,0E0,0E0,4.630842E0,0E0,0E0,8.505516E0,6.0852046E0,5.01167E0,7.546854E0,0E0,0E0,0E0,0E0,0E0,0E0,0E0,7.6977773E0,0E0,0E0,0E0,0E0,0E0,0E0],"parents":[2147483647,0,0,1,1,2,2,3,3,4,4,5,5,6,6,8,8,9,9,10,10,11,11,14,14,17,17,18,18,19,19,20,20,28,28],"right_children":[2,4,6,8,10,12,14,-1,16,18,20,22,-1,-1,24,-1,-1,26,28,30,32,-1,-1,-1,-1,-1,-1,-1,34,-1,-1,-1,-1,-1,-1],"split_conditions":[3.053608E-5,1.5728259E-4,1.1371867E-2,1.873E1,2.0116882E-2,3.363163E-3,1.0837652E-2,-0E0,1.3708207E-1,3.180761E0,8.4698014E-4,1.4863887E1,7.570903E-2,-4.5162275E-2,3.2983556E-1,-9.02209E-3,-1.20199084E-1,1.0521368E-2,9.633168E-1,1.2366377E-2,1.8887613E1,-1.0578748E-2,6.474014E-2,-0E0,6.279091E-2,-3.4749252E-3,-1.3214743E-1,4.305849E-2,5.66E0,-0E0,-7.611176E-2,6.816067E-2,-6.0113072E-3,2.9204958E-3,-8.888089E-2],"split_indices":[38,25,38,2,13,0,3,0,34,20,8,26,0,0,11,0,0,25,18,25,24,0,0,0,0,0,0,0,9,0,0,0,0,0,0],"split_type":[0,0,0,0,0,0,0,0,0,0,0,0,0,0,0,0,0,0,0,0,0,0,0,0,0,0,0,0,0,0,0,0,0,0,0],"sum_hessian":[2.655844E2,1.2859538E2,1.3698903E2,3.752122E1,9.107416E1,1.0982491E2,2.7164118E1,6.12805E0,3.1393171E1,4.0077656E1,5.09965E1,4.2052444E1,6.777247E1,8.12053E0,1.9043587E1,7.150225E0,2.4242947E1,1.651234E1,2.3565315E1,1.3370943E1,3.7625557E1,1.174063E1,3.0311815E1,6.199254E0,1.2844333E1,7.6429996E0,8.869342E0,8.142503E0,1.5422813E1,7.2789526E0,6.091991E0,3.1322222E1,6.3033347E0,8.586889E0,6.835924E0],"tree_param":{"num_deleted":"0","num_feature":"40","num_nodes":"35","size_leaf_vector":"1"}},{"base_weights":[2.0834525E-1,-2.5940466E-1,8.4106845E-1,-1.0196658E0,8.3996736E-2,3.243884E-2,9.319499E-1,-1.4362696E0,-0E0,-1.2829932E0,3.507752E-1,-2.379903E-2,4.8534617E-2,2.2906724E-2,7.598981E-2,-1.2197462E-1,-2.8140185E-2,6.314571E-2,-8.029621E-2,-0E0,-1.6332094E-1,-6.7580104E-2,5.241185E-1,-3.5761032E-2,6.398611E-1,-0E0,7.535224E-1,8.5802656E-1,-0E0,8.536845E-3,7.086034E-2],"categories":[],"categories_nodes":[],"categories_segments":[],"categories_sizes":[],"default_left":[0,0,0,0,0,0,0,0,0,0,0,0,0,0,0,0,0,0,0,0,0,0,0,0,0,0,0,0,0,0,0],"id":14,"left_children":[1,3,5,7,9,11,13,15,17,19,21,-1,-1,-1,-1,-1,-1,-1,-1,-1,-1,-1,23,-1,25,-1,27,29,-1,-1,-1],"loss_changes":[7.751814E1,4.0225197E1,6.4770126E0,1.979435E1,3.5805798E1,3.7702768E0,1.1306915E0,1.4937897E0,1.4223158E1,1.5073015E1,1.8447382E1,0E0,0E0,0E0,0E0,0E0,0E0,0E0,0E0,0E0,0E0,0E0,9.596449E0,0E0,6.4407005E0,0E0,4.3734016E0,8.1058884E-1,0E0,0E0,0E0],"parents":[2147483647,0,0,1,1,2,2,3,3,4,4,5,5,6,6,7,7,8,8,9,9,10,10,22,22,24,24,26,26,27,27],"right_children":[2,4,6,8,10,12,14,16,18,20,22,-1,-1,-1,-1,-1,-1,-1,-1,-1,-1,-1,24,-1,26,-1,28,30,-1,-1,-1],"split_conditions":[1.4314308E2,1.4280801E0,3.0997982E-2,2.8635211E-5,4.6292057E0,1.7363478E2,9.527757E-1,1.24986894E-1,1.3647686E-1,1.9969229E0,8.98E0,-2.379903E-2,4.8534617E-2,2.2906724E-2,7.598981E-2,-1.2197462E-1,-2.8140185E-2,6.314571E-2,-8.029621E-2,-0E0,-1.6332094E-1,-6.7580104E-2,4.8699677E-2,-3.5761032E-2,1.6611114E-2,-0E0,9.068566E-3,2.811518E-1,-0E0,8.536845E-3,7.086034E-2],"split_indices":[16,37,24,27,19,10,22,35,27,37,16,0,0,0,0,0,0,0,0,0,0,0,39,0,23,0,36,11,0,0,0],"split_type":[0,0,0,0,0,0,0,0,0,0,0,0,0,0,0,0,0,0,0,0,0,0,0,0,0,0,0,0,0,0,0],"sum_hessian":[2.5643115E2,1.4627017E2,1.1016097E2,4.6344517E1,9.992566E1,1.3220741E1,9.694023E1,3.2357597E1,1.3986919E1,1.4508751E1,8.541691E1,6.951684E0,6.269057E0,1.150923E1,8.5431E1,2.631215E1,6.04545E0,7.82338E0,6.16354E0,6.7038374E0,7.804914E0,8.691258E0,7.672565E1,6.0778446E0,7.0647804E1,8.697598E0,6.1950207E1,5.3444027E1,8.506177E0,6.788786E0,4.6655243E1],"tree_param":{"num_deleted":"0","num_feature":"40","num_nodes":"31","size_leaf_vector":"1"}},{"base_weights":[1.7968765E-1,-2.827413E-1,8.1738645E-1,-1.0627255E0,9.265234E-2,-0E0,8.836526E-1,-1.0470675E-1,-7.054783E-4,-1.1252751E0,3.1133172E-1,7.0807464E-2,5.275974E-3,-1.32592E-1,-8.260445E-3,4.981903E-1,-6.5778546E-2,-4.8233155E-2,6.369606E-1,-2.5198748E-3,7.3549664E-1,8.2242984E-1,-0E0,6.886906E-2,-0E0],"categories":[],"categories_nodes":[],"categories_segments":[],"categories_sizes":[],"default_left":[0,0,0,0,0,0,0,0,0,0,0,0,0,0,0,0,0,0,0,0,0,0,0,0,0],"id":15,"left_children":[1,3,5,7,9,-1,11,-1,-1,13,15,-1,-1,-1,-1,17,-1,-1,19,-1,21,23,-1,-1,-1],"loss_changes":[7.325267E1,4.30671E1,4.3043823E0,1.2778992E1,2.424792E1,0E0,1.3451538E0,0E0,0E0,4.8933983E0,1.792094E1,0E0,0E0,0E0,0E0,1.1944241E1,0E0,0E0,5.675661E0,0E0,4.17395E0,1.8955269E0,0E0,0E0,0E0],"parents":[2147483647,0,0,1,1,2,2,3,3,4,4,6,6,9,9,10,10,15,15,18,18,20,20,21,21],"right_children":[2,4,6,8,10,-1,12,-1,-1,14,16,-1,-1,-1,-1,18,-1,-1,20,-1,22,24,-1,-1,-1],"split_conditions":[1.4314308E2,1.4479011E0,7.7902466E-1,1.7583903E-4,8.55E0,-0E0,1.3720796E1,-1.0470675E-1,-7.054783E-4,6.8101826E0,9.6949977E-1,7.0807464E-2,5.275974E-3,-1.32592E-1,-8.260445E-3,4.94E0,-6.5778546E-2,-4.8233155E-2,4.974059E0,-2.5198748E-3,4E-2,1.5415547E2,-0E0,6.886906E-2,-0E0],"split_indices":[16,37,22,28,16,0,7,0,0,9,0,0,0,0,0,9,0,0,26,0,13,10,0,0,0],"split_type":[0,0,0,0,0,0,0,0,0,0,0,0,0,0,0,0,0,0,0,0,0,0,0,0,0],"sum_hessian":[2.4312122E2,1.3974059E2,1.0338064E2,4.6187267E1,9.355331E1,9.584964E0,9.379567E1,3.4290493E1,1.1896775E1,1.2276073E1,8.127724E1,8.716528E1,6.630388E0,6.1004925E0,6.175581E0,7.19557E1,9.321531E0,6.0502276E0,6.590548E1,6.2997184E0,5.960576E1,5.360092E1,6.004838E0,4.7014328E1,6.586592E0],"tree_param":{"num_deleted":"0","num_feature":"40","num_nodes":"25","size_leaf_vector":"1"}},{"base_weights":[2.046559E-1,-1.008192E0,4.1286677E-1,-1.09366335E-1,5.7829404E-3,7.182419E-1,-1.3433649E-1,4.4169006E-1,8.004351E-2,-1.22010395E-1,2.2088812E-1,-3.7834525E-2,5.608279E-1,-5.73281E-2,4.6738636E-1,2.771007E-1,7.262102E-2,6.456971E-2,-1.3739444E-1,6.816405E-2,-4.4660695E-2,-7.966491E-2,3.5412703E-2,4.0988284E-1,-7.2887224E-1,5.6590877E-2,-0E0,-1.0399062E-1,-0E0],"categories":[],"categories_nodes":[],"categories_segments":[],"categories_sizes":[],"default_left":[0,0,0,0,0,0,0,0,0,0,0,0,0,0,0,0,0,0,0,0,0,0,0,0,0,0,0,0,0],"id":16,"left_children":[1,3,5,-1,-1,7,9,11,-1,-1,13,-1,15,-1,17,19,-1,-1,21,-1,23,-1,-1,25,27,-1,-1,-1,-1],"loss_changes":[5.978187E1,1.7979553E1,3.5536224E1,0E0,0E0,9.006248E0,4.0476566E1,9.11125E0,0E0,0E0,1.3930732E1,0E0,5.3756294E0,0E0,1.2458419E1,1.044824E1,0E0,0E0,1.1311509E1,0E0,9.935308E0,0E0,0E0,2.5992234E0,6.5521636E0,0E0,0E0,0E0,0E0],"parents":[2147483647,0,0,1,1,2,2,5,5,6,6,7,7,10,10,12,12,14,14,15,15,18,18,20,20,23,23,24,24],"right_children":[2,4,6,-1,-1,8,10,12,-1,-1,14,-1,16,-1,18,20,-1,-1,22,-1,24,-1,-1,26,28,-1,-1,-1,-1],"split_conditions":[3.4033868E0,5.6384136E1,9.8177814E-1,-1.09366335E-1,5.7829404E-3,3.363163E-3,1.8111933E1,8.58765E-1,8.004351E-2,-1.22010395E-1,2.1311722E0,-3.7834525E-2,2.8635211E-5,-5.73281E-2,1.6351034E1,9.7121733E-1,7.262102E-2,6.456971E-2,5.737804E1,6.816405E-2,1.3351827E0,-7.966491E-2,3.5412703E-2,3.47E1,5.6384136E1,5.6590877E-2,-0E0,-1.0399062E-1,-0E0],"split_indices":[26,1,4,0,0,4,26,37,0,0,37,0,27,0,23,3,0,0,1,0,22,0,0,15,1,0,0,0,0],"split_type":[0,0,0,0,0,0,0,0,0,0,0,0,0,0,0,0,0,0,0,0,0,0,0,0,0,0,0,0,0],"sum_hessian":[2.3763358E2,3.292178E1,2.0471179E2,2.4613802E1,8.307979E0,1.3317918E2,7.1532616E1,7.651499E1,5.6664185E1,1.4146742E1,5.7385876E1,6.573544E0,6.994145E1,9.714571E0,4.7671307E1,4.413203E1,2.5809422E1,3.088782E1,1.6783485E1,1.6320038E1,2.781199E1,7.500858E0,9.282628E0,1.5478955E1,1.2333036E1,8.697475E0,6.7814803E0,6.2565937E0,6.0764422E0],"tree_param":{"num_deleted":"0","num_feature":"40","num_nodes":"29","size_leaf_vector":"1"}},{"base_weights":[1.4399087E-1,-2.8201354E-1,7.444878E-1,-9.383584E-1,1.10214405E-1,-0E0,8.248501E-1,-9.813165E-2,-0E0,-1.1229104E-1,3.72067E-1,-0E0,6.803766E-2,5.6704435E-2,-5.5967707E-2,-6.245149E-2,5.235419E-1,6.4618886E-1,-8.466593E-3,-0E0,7.786358E-1,6.6464335E-2,8.965217E-3],"categories":[],"categories_nodes":[],"categories_segments":[],"categories_sizes":[],"default_left":[0,0,0,0,0,0,0,0,0,0,0,0,0,0,0,0,0,0,0,0,0,0,0],"id":17,"left_children":[1,3,5,7,9,-1,11,-1,13,-1,15,-1,-1,-1,-1,-1,17,19,-1,-1,21,-1,-1],"loss_changes":[5.843512E1,3.512973E1,4.8618126E0,1.6773445E1,3.2207077E1,0E0,3.1174965E0,0E0,8.442553E0,0E0,1.2848702E1,0E0,0E0,0E0,0E0,0E0,6.095728E0,6.215727E0,0E0,0E0,1.094038E0,0E0,0E0],"parents":[2147483647,0,0,1,1,2,2,3,3,4,4,6,6,8,8,10,10,16,16,17,17,20,20],"right_children":[2,4,6,8,10,-1,12,-1,14,-1,16,-1,-1,-1,-1,-1,18,20,-1,-1,22,-1,-1],"split_conditions":[1.4314308E2,1.6430993E0,2.5447741E-2,2.8635211E-5,9.089966E0,-0E0,1.3E0,-9.813165E-2,1.4004415E-1,-1.1229104E-1,4.6349206E0,-0E0,6.803766E-2,5.6704435E-2,-5.5967707E-2,-6.245149E-2,1.58E2,5.125896E0,-8.466593E-3,-0E0,1.9626484E0,6.6464335E-2,8.965217E-3],"split_indices":[16,37,5,27,16,0,14,0,27,0,19,0,0,0,0,0,10,9,0,0,5,0,0],"split_type":[0,0,0,0,0,0,0,0,0,0,0,0,0,0,0,0,0,0,0,0,0,0,0],"sum_hessian":[2.2310706E2,1.2920163E2,9.390543E1,4.9354958E1,7.9846664E1,1.0483505E1,8.342193E1,3.615313E1,1.320183E1,9.646533E0,7.0200134E1,7.6706357E0,7.575129E1,6.827321E0,6.3745084E0,6.0530167E0,6.414712E1,5.6020172E1,8.126945E0,7.559157E0,4.8461018E1,4.00815E1,8.379516E0],"tree_param":{"num_deleted":"0","num_feature":"40","num_nodes":"23","size_leaf_vector":"1"}},{"base_weights":[1.7215832E-1,6.040229E-1,-4.9221748E-1,2.6977852E-1,7.9383574E-2,-9.7731656E-1,3.1358874E-1,-1.7534198E-1,6.2632434E-2,-1.2395008E0,-1.3152116E-3,-8.981566E-2,6.468246E-2,-1.1095814E0,2.51822E-1,-1.1199591E-1,-0E0,-4.9781132E-2,2.7385255E-2,-7.693458E-2,2.6073832E-2,-9.281196E-3,-1.190372E-1,6.384988E-1,-4.216693E-2,6.667734E-2,-0E0],"categories":[],"categories_nodes":[],"categories_segments":[],"categories_sizes":[],"default_left":[0,0,0,0,0,0,0,0,0,0,0,0,0,0,0,0,0,0,0,0,0,0,0,0,0,0,0],"id":18,"left_children":[1,3,5,7,-1,9,11,13,-1,15,17,19,-1,21,23,-1,-1,-1,-1,-1,-1,-1,-1,25,-1,-1,-1],"loss_changes":[6.638622E1,1.779501E1,3.649398E1,2.1642593E1,0E0,1.255883E1,8.504193E0,1.9903267E1,0E0,1.1471764E1,4.2232285E0,8.676322E0,0E0,3.7703972E0,1.012918E1,0E0,0E0,0E0,0E0,0E0,0E0,0E0,0E0,3.2158728E0,0E0,0E0,0E0],"parents":[2147483647,0,0,1,1,2,2,3,3,5,5,6,6,7,7,9,9,10,10,11,11,13,13,14,14,23,23],"right_children":[2,4,6,8,-1,10,12,14,-1,16,18,20,-1,22,24,-1,-1,-1,-1,-1,-1,-1,-1,26,-1,-1,-1],"split_conditions":[1E0,3.363163E-3,2.688358E0,1.7944608E2,7.9383574E-2,3.2418664E0,1.4314308E2,2.0116882E-2,6.2632434E-2,1.279115E1,3.0794893E1,1.2331368E0,6.468246E-2,5.585511E-3,4E-2,-1.1199591E-1,-0E0,-4.9781132E-2,2.7385255E-2,-7.693458E-2,2.6073832E-2,-9.281196E-3,-1.190372E-1,3.35193E1,-4.216693E-2,6.667734E-2,-0E0],"split_indices":[4,4,22,16,0,37,16,13,0,20,16,34,0,36,13,0,0,0,0,0,0,0,0,16,0,0,0],"split_type":[0,0,0,0,0,0,0,0,0,0,0,0,0,0,0,0,0,0,0,0,0,0,0,0,0,0,0],"sum_hessian":[2.2825201E2,1.3997844E2,8.8273575E1,8.229305E1,5.768539E1,5.6284187E1,3.1989388E1,4.4106228E1,3.8186825E1,4.2711124E1,1.357306E1,1.6887405E1,1.5101983E1,1.4508942E1,2.9597288E1,3.5735252E1,6.9758716E0,6.207142E0,7.365918E0,6.1777735E0,1.0709632E1,6.1822877E0,8.326654E0,2.1593771E1,8.003516E0,1.5312097E1,6.2816744E0],"tree_param":{"num_deleted":"0","num_feature":"40","num_nodes":"27","size_leaf_vector":"1"}},{"base_weights":[1.2003859E-1,-2.9834336E-1,7.3176205E-1,-6.124957E-1,3.7295136E-1,-3.790182E-4,8.071207E-1,-1.06008545E-1,-1.1772047E0,-6.403334E-2,7.2609425E-1,6.50374E-2,1.366088E-2,-9.344176E-2,2.7003467E-1,-1.57479E0,-0E0,6.922643E-2,-0E0,-5.8082674E-2,5.8647525E-1,-4.143342E-2,-1.3548183E-1,-0E0,7.721114E-1,7.0401795E-2,7.1721473E-3],"categories":[],"categories_nodes":[],"categories_segments":[],"categories_sizes":[],"default_left":[0,0,0,0,0,0,0,0,0,0,0,0,0,0,0,0,0,0,0,0,0,0,0,0,0,0,0],"id":19,"left_children":[1,3,5,7,9,-1,11,13,15,-1,17,-1,-1,-1,19,21,-1,-1,-1,-1,23,-1,-1,-1,25,-1,-1],"loss_changes":[5.7096E1,2.7957815E1,6.4482155E0,2.345272E1,1.7703777E1,0E0,2.6584244E-1,2.32066E1,1.7583763E1,0E0,4.3389206E0,0E0,0E0,0E0,1.2471774E1,8.5188293E-1,0E0,0E0,0E0,0E0,3.7158585E0,0E0,0E0,0E0,5.292902E-1,0E0,0E0],"parents":[2147483647,0,0,1,1,2,2,3,3,4,4,6,6,7,7,8,8,10,10,14,14,15,15,20,20,24,24],"right_children":[2,4,6,8,10,-1,12,14,16,-1,18,-1,-1,-1,20,22,-1,-1,-1,-1,24,-1,-1,-1,26,-1,-1],"split_conditions":[1.4314308E2,2.8635211E-5,9.0445304E-1,9.6987885E-1,1.0837652E-2,-3.790182E-4,1.4E1,1.4479011E0,5.531787E1,-6.403334E-2,1.4004415E-1,6.50374E-2,1.366088E-2,-9.344176E-2,2.4393602E1,2.6591868E0,-0E0,6.922643E-2,-0E0,-5.8082674E-2,3.180761E0,-4.143342E-2,-1.3548183E-1,-0E0,2.4233725E-2,7.0401795E-2,7.1721473E-3],"split_indices":[16,27,37,3,3,0,7,37,1,0,27,0,0,0,16,12,0,0,0,0,20,0,0,0,13,0,0],"split_type":[0,0,0,0,0,0,0,0,0,0,0,0,0,0,0,0,0,0,0,0,0,0,0,0,0,0,0],"sum_hessian":[2.1792725E2,1.2809914E2,8.982812E1,8.909186E1,3.9007275E1,6.3068857E0,8.352123E1,4.9337074E1,3.9754787E1,7.338727E0,3.1668547E1,7.5336235E1,8.184995E0,1.2935914E1,3.640116E1,2.8775003E1,1.0979783E1,2.5336102E1,6.3324447E0,6.883265E0,2.9517895E1,6.6695404E0,2.2105463E1,6.7630663E0,2.275483E1,1.6257145E1,6.4976835E0],"tree_param":{"num_deleted":"0","num_feature":"40","num_nodes":"27","size_leaf_vector":"1"}},{"base_weights":[1.2355203E-1,-2.3495492E-1,6.5957886E-1,-7.180232E-1,1.354333E-1,-2.2531243E-2,8.212957E-1,-1.8959074E-1,-9.137319E-2,-7.0359215E-2,3.28079E-1,8.7199056E-1,4.375242E-4,-9.355197E-2,1.9992878E-1,-5.553324E-2,4.9158114E-1,2.1363316E-2,7.146871E-2,4.8940614E-1,-1.4131491E-2,7.3781174E-1,-0E0,-0E0,5.953264E-2,-0E0,6.752917E-2,3.0554608E-2,-6.1018147E-2],"categories":[],"categories_nodes":[],"categories_segments":[],"categories_sizes":[],"default_left":[0,0,0,0,0,0,0,0,0,0,0,0,0,0,0,0,0,0,0,0,0,0,0,0,0,0,0,0,0],"id":20,"left_children":[1,3,5,7,9,-1,11,13,-1,-1,15,17,-1,-1,19,-1,21,-1,-1,23,-1,25,27,-1,-1,-1,-1,-1,-1],"loss_changes":[4.2959087E1,2.4391617E1,1.507201E1,1.2045225E1,1.4074644E1,0E0,1.7297173E0,1.448263E1,0E0,0E0,1.0980316E1,1.9335175E-1,0E0,0E0,3.1128056E0,0E0,7.9281893E0,0E0,0E0,1.7875416E0,0E0,2.879734E0,6.78568E0,0E0,0E0,0E0,0E0,0E0,0E0],"parents":[2147483647,0,0,1,1,2,2,3,3,4,4,6,6,7,7,10,10,11,11,14,14,16,16,19,19,21,21,22,22],"right_children":[2,4,6,8,10,-1,12,14,-1,-1,16,18,-1,-1,20,-1,22,-1,-1,24,-1,26,28,-1,-1,-1,-1,-1,-1],"split_conditions":[1.4314308E2,2.1311722E0,3.0997982E-2,2.8395733E-1,8.27E0,-2.2531243E-2,1.3720796E1,3.3195853E-1,-9.137319E-2,-7.0359215E-2,2.5506327E-1,9.527757E-1,4.375242E-4,-9.355197E-2,5.901763E-1,-5.553324E-2,9.860011E-1,2.1363316E-2,7.146871E-2,1.7502423E-2,-1.4131491E-2,1.3732554E-1,2.2669883E0,-0E0,5.953264E-2,-0E0,6.752917E-2,3.0554608E-2,-6.1018147E-2],"split_indices":[16,37,24,34,16,0,7,11,0,0,11,22,0,0,22,0,3,0,0,36,0,39,23,0,0,0,0,0,0],"split_type":[0,0,0,0,0,0,0,0,0,0,0,0,0,0,0,0,0,0,0,0,0,0,0,0,0,0,0,0,0],"sum_hessian":[2.1754846E2,1.2882848E2,8.8719986E1,5.744987E1,7.13786E1,1.116735E1,7.755264E1,2.9708422E1,2.7741447E1,8.941945E0,6.2436653E1,7.0936195E1,6.616443E0,8.65874E0,2.104968E1,6.4131317E0,5.6023525E1,9.877183E0,6.1059013E1,1.4390603E1,6.659078E0,3.8765186E1,1.7258339E1,6.4476376E0,7.942966E0,8.258529E0,3.0506657E1,1.0764226E1,6.4941115E0],"tree_param":{"num_deleted":"0","num_feature":"40","num_nodes":"29","size_leaf_vector":"1"}},{"base_weights":[1.542542E-1,-3.027783E-1,6.0108817E-1,-1.1191492E0,-0E0,7.299445E-1,-3.05284E-2,-1.292176E0,-1.5239191E-2,-9.356214E-2,2.2257224E-1,7.988859E-1,-0E0,-1.1868179E-1,-3.4018323E-2,-6.721012E-2,4.260503E-1,3.3637264E-1,9.330652E-1,6.435099E-1,-1.7969862E-2,-1.9534353E-2,4.862451E-2,7.715996E-2,3.056794E-3,-0E0,7.747598E-1,4.4958447E-3,6.606729E-2],"categories":[],"categories_nodes":[],"categories_segments":[],"categories_sizes":[],"default_left":[0,0,0,0,0,0,0,0,0,0,0,0,0,0,0,0,0,0,0,0,0,0,0,0,0,0,0,0,0],"id":21,"left_children":[1,3,5,7,9,11,-1,13,-1,-1,15,17,-1,-1,-1,-1,19,21,23,25,-1,-1,-1,-1,-1,-1,27,-1,-1],"loss_changes":[4.3902657E1,2.490566E1,1.4989124E1,1.4788551E0,2.1870071E1,4.989212E0,0E0,3.6315918E-1,0E0,0E0,1.440615E1,3.021946E0,0E0,0E0,0E0,0E0,9.180753E0,5.2748337E0,2.5286407E0,4.7700214E0,0E0,0E0,0E0,0E0,0E0,0E0,8.2071877E-1,0E0,0E0],"parents":[2147483647,0,0,1,1,2,2,3,3,4,4,5,5,7,7,10,10,11,11,16,16,17,17,18,18,19,19,26,26],"right_children":[2,4,6,8,10,12,-1,14,-1,-1,16,18,-1,-1,-1,-1,20,22,24,26,-1,-1,-1,-1,-1,-1,28,-1,-1],"split_conditions":[1.7583903E-4,1.1031239E0,5.3135917E-2,2.68E0,1.533E1,1.3E1,-3.05284E-2,2.604E1,-1.5239191E-2,-9.356214E-2,2.2321136E0,4.64384E1,-0E0,-1.1868179E-1,-3.4018323E-2,-6.721012E-2,6.84E0,9.549E1,4.2501744E-2,3.2551227E0,-1.7969862E-2,-1.9534353E-2,4.862451E-2,7.715996E-2,3.056794E-3,-0E0,6.495017E-2,4.4958447E-3,6.606729E-2],"split_indices":[28,7,28,14,16,7,0,2,0,0,26,1,0,0,0,0,9,16,28,7,0,0,0,0,0,0,33,0,0],"split_type":[0,0,0,0,0,0,0,0,0,0,0,0,0,0,0,0,0,0,0,0,0,0,0,0,0,0,0,0,0],"sum_hessian":[2.101756E2,1.0217707E2,1.0799853E2,2.6249315E1,7.592776E1,9.748854E1,1.0509991E1,2.0101326E1,6.147989E0,1.1273722E1,6.465404E1,8.90075E1,8.481034E0,1.3096937E1,7.004389E0,8.143108E0,5.651093E1,2.3866615E1,6.514089E1,4.4511955E1,1.1998972E1,6.1142163E0,1.77524E1,5.82179E1,6.922991E0,6.230002E0,3.8281956E1,6.547622E0,3.1734333E1],"tree_param":{"num_deleted":"0","num_feature":"40","num_nodes":"29","size_leaf_vector":"1"}},{"base_weights":[1.5164144E-1,5.4790294E-1,-4.7711837E-1,2.3100552E-1,7.698604E-2,-9.13084E-1,1.1803559E-1,-7.73514E-2,3.93628E-1,-2.5804144E-1,-1.24993E0,-5.644227E-2,4.8281515E-1,-2.3816347E-2,5.420799E-1,-6.0021944E-2,1.0711651E-2,-2.2206318E-2,-1.11829355E-1,-0E0,5.4064255E-2,-0E0,7.3861486E-1,-3.153736E-2,3.915197E-2,6.851606E-2,4.1379794E-3],"categories":[],"categories_nodes":[],"categories_segments":[],"categories_sizes":[],"default_left":[0,0,0,0,0,0,0,0,0,0,0,0,0,0,0,0,0,0,0,0,0,0,0,0,0,0,0],"id":22,"left_children":[1,3,5,7,-1,9,11,-1,13,15,17,-1,19,-1,21,-1,-1,-1,-1,-1,-1,23,25,-1,-1,-1,-1],"loss_changes":[4.920481E1,1.5293587E1,2.0868612E1,1.4750193E1,0E0,6.904484E0,9.633424E0,0E0,7.8526564E0,5.1152277E0,2.0160446E0,0E0,3.148323E0,0E0,6.2855015E0,0E0,0E0,0E0,0E0,0E0,0E0,3.8891206E0,2.9566936E0,0E0,0E0,0E0,0E0],"parents":[2147483647,0,0,1,1,2,2,3,3,5,5,6,6,8,8,9,9,10,10,12,12,14,14,21,21,22,22],"right_children":[2,4,6,8,-1,10,12,-1,14,16,18,-1,20,-1,22,-1,-1,-1,-1,-1,-1,24,26,-1,-1,-1,-1],"split_conditions":[1E0,3.363163E-3,2.395563E0,4.38E0,7.698604E-2,3.2883382E0,3.382E1,-7.73514E-2,2.1348025E-4,3.6395252E1,1.8680161E-1,-5.644227E-2,3.34E0,-2.3816347E-2,2.0116882E-2,-6.0021944E-2,1.0711651E-2,-2.2206318E-2,-1.11829355E-1,-0E0,5.4064255E-2,6.6730547E0,4E-2,-3.153736E-2,3.915197E-2,6.851606E-2,4.1379794E-3],"split_indices":[4,4,22,19,0,12,16,0,36,26,34,0,12,0,13,0,0,0,0,0,0,23,13,0,0,0,0],"split_type":[0,0,0,0,0,0,0,0,0,0,0,0,0,0,0,0,0,0,0,0,0,0,0,0,0,0,0],"sum_hessian":[1.945323E2,1.2111324E2,7.341906E1,7.48263E1,4.6286938E1,4.368627E1,2.9732788E1,6.71118E0,6.811512E1,1.7303446E1,2.6382826E1,7.106191E0,2.2626596E1,9.595127E0,5.8519993E1,8.830581E0,8.472866E0,6.7251997E0,1.9657625E1,6.353132E0,1.6273464E1,1.603268E1,4.2487312E1,8.896135E0,7.136546E0,3.225231E1,1.02350025E1],"tree_param":{"num_deleted":"0","num_feature":"40","num_nodes":"27","size_leaf_vector":"1"}},{"base_weights":[1.1215132E-1,-2.4369782E-1,6.6670686E-1,-6.5447E-1,2.4080116E-1,1.5583813E-2,8.214961E-1,-9.4700676E-1,-0E0,4.7503045E-1,-8.538531E-2,4.153681E-2,-4.7235325E-2,5.3164093E-3,6.944391E-2,-3.244404E-1,-1.3507016E0,-2.235389E-2,3.8878076E-2,6.713054E-1,-2.3632284E-2,2.3746584E-2,-7.1834624E-1,-1.2637867E-1,-2.2050057E-2,-0E0,6.4827316E-2,-7.2151124E-2,-6.226696E-3],"categories":[],"categories_nodes":[],"categories_segments":[],"categories_sizes":[],"default_left":[0,0,0,0,0,0,0,0,0,0,0,0,0,0,0,0,0,0,0,0,0,0,0,0,0,0,0,0,0],"id":23,"left_children":[1,3,5,7,9,11,13,15,17,19,-1,-1,-1,-1,-1,21,23,-1,-1,25,-1,-1,27,-1,-1,-1,-1,-1,-1],"loss_changes":[4.083834E1,2.522018E1,6.725956E0,1.4302065E1,1.698836E1,6.5929313E0,2.2905388E0,8.786579E0,3.5593977E0,8.386198E0,0E0,0E0,0E0,0E0,0E0,6.570109E0,4.783375E0,0E0,0E0,4.345598E0,0E0,0E0,3.932562E-1,0E0,0E0,0E0,0E0,0E0,0E0],"parents":[2147483647,0,0,1,1,2,2,3,3,4,4,5,5,6,6,7,7,8,8,9,9,15,15,16,16,19,19,22,22],"right_children":[2,4,6,8,10,12,14,16,18,20,-1,-1,-1,-1,-1,22,24,-1,-1,26,-1,-1,28,-1,-1,-1,-1,-1,-1],"split_conditions":[1.4314308E2,1.7583903E-4,1.6611114E-2,3.053608E-5,9.6949977E-1,9.743948E-1,1.0837652E-2,9.539974E-1,3.363163E-3,4.7783237E-2,-8.538531E-2,4.153681E-2,-4.7235325E-2,5.3164093E-3,6.944391E-2,9.215436E-1,2.701E1,-2.235389E-2,3.8878076E-2,3.1381345E-1,-2.3632284E-2,2.3746584E-2,2.498E1,-1.2637867E-1,-2.2050057E-2,-0E0,6.4827316E-2,-7.2151124E-2,-6.226696E-3],"split_indices":[16,28,23,38,0,3,3,5,0,28,0,0,0,0,0,18,2,0,0,11,0,0,2,0,0,0,0,0,0],"split_type":[0,0,0,0,0,0,0,0,0,0,0,0,0,0,0,0,0,0,0,0,0,0,0,0,0,0,0,0,0],"sum_hessian":[2.0104054E2,1.2096765E2,8.007288E1,6.717151E1,5.3796146E1,1.778308E1,6.2289806E1,4.740124E1,1.9770264E1,4.762466E1,6.1714883E0,1.1289849E1,6.4932294E0,8.613025E0,5.367678E1,2.118698E1,2.6214264E1,1.1276634E1,8.493629E0,3.998997E1,7.6346893E0,6.5293975E0,1.4657581E1,1.8670158E1,7.5441055E0,9.198051E0,3.0791918E1,8.412705E0,6.244875E0],"tree_param":{"num_deleted":"0","num_feature":"40","num_nodes":"29","size_leaf_vector":"1"}},{"base_weights":[9.87972E-2,4.8717278E-1,-4.0329793E-1,1.7048611E-1,7.524388E-2,-8.08486E-1,2.5196147E-1,-2.3748673E-1,5.470165E-1,-1.0724169E0,1.3516264E-3,-4.454243E-2,6.8057686E-1,-8.252532E-2,1.7649487E-1,-0E0,5.635668E-2,-1.2917852E0,-1.1870917E-2,-0E0,6.429113E-2,-2.0531887E-2,4.80338E-2,-2.7445534E-2,-1.1179748E-1],"categories":[],"categories_nodes":[],"categories_segments":[],"categories_sizes":[],"default_left":[0,0,0,0,0,0,0,0,0,0,0,0,0,0,0,0,0,0,0,0,0,0,0,0,0],"id":24,"left_children":[1,3,5,7,-1,9,11,13,15,17,-1,-1,19,-1,21,-1,-1,23,-1,-1,-1,-1,-1,-1,-1],"loss_changes":[3.6808743E1,1.4703245E1,2.2498796E1,1.1344239E1,0E0,1.3071945E1,1.133538E1,1.2882076E1,4.5036974E0,5.4272804E0,0E0,0E0,9.957304E-1,0E0,5.0339613E0,0E0,0E0,1.0843658E0,0E0,0E0,0E0,0E0,0E0,0E0,0E0],"parents":[2147483647,0,0,1,1,2,2,3,3,5,5,6,6,7,7,8,8,9,9,12,12,14,14,17,17],"right_children":[2,4,6,8,-1,10,12,14,16,18,-1,-1,20,-1,22,-1,-1,24,-1,-1,-1,-1,-1,-1,-1],"split_conditions":[1E0,3.363163E-3,2.7444124E0,6.156566E1,7.524388E-2,5.531787E1,3.572E1,4.567992E1,8.4698014E-4,1.4272796E0,1.3516264E-3,-4.454243E-2,1.004247E0,-8.252532E-2,5.912371E-3,-0E0,5.635668E-2,2.7894552E1,-1.1870917E-2,-0E0,6.429113E-2,-2.0531887E-2,4.80338E-2,-2.7445534E-2,-1.1179748E-1],"split_indices":[4,4,22,16,0,1,16,15,8,32,0,0,32,0,36,0,0,15,0,0,0,0,0,0,0],"split_type":[0,0,0,0,0,0,0,0,0,0,0,0,0,0,0,0,0,0,0,0,0,0,0,0,0],"sum_hessian":[1.8560265E2,1.0661831E2,7.8984344E1,6.813932E1,3.847899E1,5.026498E1,2.871936E1,3.0709032E1,3.743029E1,3.941216E1,1.0852822E1,8.235831E0,2.048353E1,1.0886216E1,1.9822815E1,8.947719E0,2.848257E1,2.9887333E1,9.524824E0,6.008905E0,1.4474625E1,8.2872715E0,1.1535543E1,6.694217E0,2.3193115E1],"tree_param":{"num_deleted":"0","num_feature":"40","num_nodes":"25","size_leaf_vector":"1"}},{"base_weights":[8.5485965E-2,4.4538206E-1,-4.0643498E-1,1.0585401E-1,7.541883E-2,-9.2110735E-1,1.5035257E-1,-2.2531296E-1,5.605266E-1,-0E0,-1.2742907E0,-3.054653E-2,4.097689E-1,-7.379727E-1,4.7414294E-1,5.7257455E-2,-0E0,-1.1097939E-1,-2.472637E-2,6.537695E-2,-1.26166735E-2,4.4425116E-3,-1.1000907E0,5.531973E-2,-0E0,-8.085986E-3,-1.1688083E-1],"categories":[],"categories_nodes":[],"categories_segments":[],"categories_sizes":[],"default_left":[0,0,0,0,0,0,0,0,0,0,0,0,0,0,0,0,0,0,0,0,0,0,0,0,0,0,0],"id":25,"left_children":[1,3,5,7,-1,9,11,13,15,-1,17,-1,19,21,23,-1,-1,-1,-1,-1,-1,-1,25,-1,-1,-1,-1],"loss_changes":[3.29587E1,1.7969847E1,2.3443825E1,1.1319377E1,0E0,1.3458256E1,5.371401E0,1.498202E1,4.3832874E0,0E0,1.347229E0,0E0,8.323303E0,8.971618E0,1.5752501E0,0E0,0E0,0E0,0E0,0E0,0E0,0E0,4.794203E0,0E0,0E0,0E0,0E0],"parents":[2147483647,0,0,1,1,2,2,3,3,5,5,6,6,7,7,8,8,10,10,12,12,13,13,14,14,22,22],"right_children":[2,4,6,8,-1,10,12,14,16,-1,18,-1,20,22,24,-1,-1,-1,-1,-1,-1,-1,26,-1,-1,-1,-1],"split_conditions":[1E0,3.363163E-3,9.5917386E-1,1.7944608E2,7.541883E-2,9.891623E-1,5.3472095E0,2.8635211E-5,9.158932E-1,-0E0,2.8004448E1,-3.054653E-2,2.2555061E1,5.8577555E-1,1.3263912E-1,5.7257455E-2,-0E0,-1.1097939E-1,-2.472637E-2,6.537695E-2,-1.26166735E-2,4.4425116E-3,9.527757E-1,5.531973E-2,-0E0,-8.085986E-3,-1.1688083E-1],"split_indices":[4,4,32,16,0,18,24,27,6,0,2,0,24,3,27,0,0,0,0,0,0,0,22,0,0,0,0],"split_type":[0,0,0,0,0,0,0,0,0,0,0,0,0,0,0,0,0,0,0,0,0,0,0,0,0,0,0],"sum_hessian":[1.8335223E2,1.0798458E2,7.5367645E1,6.9108284E1,3.8876293E1,4.037307E1,3.499458E1,3.8131237E1,3.0977049E1,1.1564303E1,2.8808765E1,8.878679E0,2.61159E1,2.339477E1,1.4736468E1,2.4745386E1,6.2316637E0,2.2278769E1,6.5299964E0,1.61087E1,1.0007201E1,6.135119E0,1.7259651E1,8.691082E0,6.0453863E0,6.8415785E0,1.0418072E1],"tree_param":{"num_deleted":"0","num_feature":"40","num_nodes":"27","size_leaf_vector":"1"}},{"base_weights":[3.0793995E-3,4.0674004E-1,-5.873795E-1,4.841548E-2,7.459996E-2,-1.1617218E0,5.670638E-3,-3.2669488E-1,6.03003E-1,-2.121416E-2,-9.8269716E-2,-6.359567E-1,4.685305E-2,-8.7303236E-2,-0E0,2.9089097E-3,6.3149564E-2,-0E0,-8.6602025E-2,4.4360298E-1,-4.735938E-1,-0E0,5.9971284E-2,-0E0,-7.306922E-2],"categories":[],"categories_nodes":[],"categories_segments":[],"categories_sizes":[],"default_left":[0,0,0,0,0,0,0,0,0,0,0,0,0,0,0,0,0,0,0,0,0,0,0,0,0],"id":26,"left_children":[1,3,5,7,-1,9,11,13,15,-1,-1,17,-1,-1,19,-1,-1,-1,-1,21,23,-1,-1,-1,-1],"loss_changes":[4.0219994E1,1.904754E1,2.493818E1,1.4465388E1,0E0,6.913719E-1,1.3188144E1,1.0508428E1,2.0888128E0,0E0,0E0,4.0388427E0,0E0,0E0,6.1900263E0,0E0,0E0,0E0,0E0,2.6870081E0,3.6149035E0,0E0,0E0,0E0,0E0],"parents":[2147483647,0,0,1,1,2,2,3,3,5,5,6,6,7,7,8,8,11,11,14,14,19,19,20,20],"right_children":[2,4,6,8,-1,10,12,14,16,-1,-1,18,-1,-1,20,-1,-1,-1,-1,22,24,-1,-1,-1,-1],"split_conditions":[1E0,3.363163E-3,9.5464903E-1,1.7704736E2,7.459996E-2,1.330304E2,3.053608E-5,1.5649952E0,2.0116882E-2,-2.121416E-2,-9.8269716E-2,1.4345866E2,4.685305E-2,-8.7303236E-2,2.1018858E0,2.9089097E-3,6.3149564E-2,-0E0,-8.6602025E-2,1.2545955E0,6.127257E0,-0E0,5.9971284E-2,-0E0,-7.306922E-2],"split_indices":[4,4,32,16,0,10,38,14,13,0,0,10,0,0,14,0,0,0,0,32,9,0,0,0,0],"split_type":[0,0,0,0,0,0,0,0,0,0,0,0,0,0,0,0,0,0,0,0,0,0,0,0,0],"sum_hessian":[1.6765257E2,1.0154229E2,6.6110275E1,6.489299E1,3.6649303E1,3.4483166E1,3.162711E1,3.71416E1,2.7751385E1,6.3459525E0,2.8137213E1,1.3943087E1,1.7684023E1,1.0041224E1,2.710038E1,1.0409284E1,1.7342102E1,7.191041E0,6.7520456E0,1.4344296E1,1.2756083E1,6.169078E0,8.175219E0,6.542892E0,6.213191E0],"tree_param":{"num_deleted":"0","num_feature":"40","num_nodes":"25","size_leaf_vector":"1"}},{"base_weights":[3.6605656E-2,3.9115477E-1,-4.328858E-1,7.796397E-2,7.366692E-2,-1.0559868E0,-0E0,-4.5599666E-1,4.0974432E-1,-6.334614E-3,-9.5379494E-2,-7.355555E-1,3.8103247E-1,6.8101776E-3,-9.152214E-1,-2.8841931E-2,6.03133E-1,-0E0,-1.0898317E-1,-0E0,5.577681E-1,-1.06603004E-1,-0E0,7.198106E-1,-0E0,-0E0,5.6587167E-2,-0E0,6.3607454E-2],"categories":[],"categories_nodes":[],"categories_segments":[],"categories_sizes":[],"default_left":[0,0,0,0,0,0,0,0,0,0,0,0,0,0,0,0,0,0,0,0,0,0,0,0,0,0,0,0,0],"id":27,"left_children":[1,3,5,7,-1,9,11,13,15,-1,-1,17,19,-1,21,-1,23,-1,-1,-1,25,-1,-1,27,-1,-1,-1,-1,-1],"loss_changes":[2.9101728E1,1.631202E1,2.0305382E1,1.2376515E1,0E0,3.1933327E0,1.2498971E1,7.792142E0,7.5410547E0,0E0,0E0,1.0018481E1,2.9655623E0,0E0,4.7347717E0,0E0,2.0997667E0,0E0,0E0,0E0,1.391727E0,0E0,0E0,1.1399822E0,0E0,0E0,0E0,0E0,0E0],"parents":[2147483647,0,0,1,1,2,2,3,3,5,5,6,6,7,7,8,8,11,11,12,12,14,14,16,16,20,20,23,23],"right_children":[2,4,6,8,-1,10,12,14,16,-1,-1,18,20,-1,22,-1,24,-1,-1,-1,26,-1,-1,28,-1,-1,-1,-1,-1],"split_conditions":[1E0,3.363163E-3,2.3068743E0,2.0116882E-2,7.366692E-2,4.7417384E-1,3.572E1,5.31E0,7.701854E-1,-6.334614E-3,-9.5379494E-2,5.554317E-1,2.811518E-1,6.8101776E-3,1.0722836E0,-2.8841931E-2,4.71E0,-0E0,-1.0898317E-1,-0E0,2.0116882E-2,-1.06603004E-1,-0E0,5.458865E0,-0E0,-0E0,5.6587167E-2,-0E0,6.3607454E-2],"split_indices":[4,4,37,13,0,18,16,9,37,0,0,5,11,0,32,0,12,0,0,0,13,0,0,9,0,0,0,0,0],"split_type":[0,0,0,0,0,0,0,0,0,0,0,0,0,0,0,0,0,0,0,0,0,0,0,0,0,0,0,0,0],"sum_hessian":[1.7283861E2,1.0069017E2,7.2148445E1,6.78437E1,3.2846478E1,2.9333445E1,4.2815E1,2.382643E1,4.4017265E1,6.5412836E0,2.2792162E1,1.3787434E1,2.9027563E1,9.614999E0,1.4211431E1,6.6965528E0,3.7320713E1,6.0313597E0,7.7560744E0,6.5898924E0,2.2437672E1,7.9112196E0,6.300211E0,2.989676E1,7.4239507E0,7.608663E0,1.4829008E1,6.070406E0,2.3826355E1],"tree_param":{"num_deleted":"0","num_feature":"40","num_nodes":"29","size_leaf_vector":"1"}},{"base_weights":[1.2132887E-1,4.402051E-1,-3.2011196E-1,1.3522795E-1,7.387142E-2,-6.3813764E-1,3.4810388E-1,7.123421E-1,-1.05764806E-1,3.9628014E-2,-9.827035E-1,-0E0,4.4956148E-2,2.281641E-3,6.624764E-2,-4.9569657E-1,4.4117242E-2,-1.5116844E-2,4.068626E-2,-9.866515E-2,-0E0,-0E0,-7.5003016E-1,-1.2468609E-1,-1.1220076E-1,-5.268186E-2,1.8373163E-2],"categories":[],"categories_nodes":[],"categories_segments":[],"categories_sizes":[],"default_left":[0,0,0,0,0,0,0,0,0,0,0,0,0,0,0,0,0,0,0,0,0,0,0,0,0,0,0],"id":28,"left_children":[1,3,5,7,-1,9,11,13,15,17,19,-1,-1,-1,-1,21,-1,-1,-1,-1,-1,-1,23,25,-1,-1,-1],"loss_changes":[2.5198732E1,1.4745558E1,1.6149002E1,1.0871923E1,0E0,1.3640999E1,2.8243635E0,7.994728E-1,1.3037415E1,2.65146E0,1.1162899E1,0E0,0E0,0E0,0E0,3.7847872E0,0E0,0E0,0E0,0E0,0E0,0E0,6.469434E0,3.8215473E0,0E0,0E0,0E0],"parents":[2147483647,0,0,1,1,2,2,3,3,5,5,6,6,7,7,8,8,9,9,10,10,15,15,22,22,23,23],"right_children":[2,4,6,8,-1,10,12,14,16,18,20,-1,-1,-1,-1,22,-1,-1,-1,-1,-1,-1,24,26,-1,-1,-1],"split_conditions":[9.929648E-1,3.363163E-3,5.6384136E1,9.7121733E-1,7.387142E-2,9.633168E-1,2.0491345E0,2.1187203E-1,2.8635211E-5,1.7048565E1,1.9566966E0,-0E0,4.4956148E-2,2.281641E-3,6.624764E-2,9.469435E-1,4.4117242E-2,-1.5116844E-2,4.068626E-2,-9.866515E-2,-0E0,-0E0,7.235349E-3,1.9625566E0,-1.1220076E-1,-5.268186E-2,1.8373163E-2],"split_indices":[4,4,1,3,0,18,7,8,27,26,32,0,0,0,0,5,0,0,0,0,0,0,25,37,0,0,0],"split_type":[0,0,0,0,0,0,0,0,0,0,0,0,0,0,0,0,0,0,0,0,0,0,0,0,0,0,0],"sum_hessian":[1.7512909E2,1.0396053E2,7.116856E1,6.876124E1,3.519929E1,5.001256E1,2.1155989E1,2.1680103E1,4.7081135E1,1.5520284E1,3.449228E1,6.2882223E0,1.4867766E1,6.2939334E0,1.5386169E1,3.1773924E1,1.5307212E1,8.578677E0,6.941607E0,2.6310694E1,8.181586E0,1.1844476E1,1.992945E1,1.2673876E1,7.2555723E0,6.4299264E0,6.2439494E0],"tree_param":{"num_deleted":"0","num_feature":"40","num_nodes":"27","size_leaf_vector":"1"}},{"base_weights":[1.0253005E-1,-2.034619E-1,6.248257E-1,-7.3932534E-1,3.3634346E-2,-3.1786708E-3,7.225951E-1,-0E0,-9.6248096E-1,-2.616993E-1,3.5297975E-1,2.2899887E-1,6.7618385E-2,-8.660486E-2,-1.0201552E-2,-6.846939E-2,-0E0,5.405662E-2,-0E0,-1.5157816E-2,4.66233E-2,3.3035037E-1,-3.96556E-2,-1.6315732E-2,2.799255E-2,-0E0,3.9999735E-2],"categories":[],"categories_nodes":[],"categories_segments":[],"categories_sizes":[],"default_left":[0,0,0,0,0,0,0,0,0,0,0,0,0,0,0,0,0,0,0,0,0,0,0,0,0,0,0],"id":29,"left_children":[1,3,5,7,9,-1,11,-1,13,15,17,19,-1,-1,-1,-1,21,-1,23,-1,-1,25,-1,-1,-1,-1,-1],"loss_changes":[2.8183475E1,1.4787418E1,5.4825573E0,5.055092E0,7.13174E0,0E0,2.5267696E0,0E0,1.2645321E0,6.876849E0,4.0374527E0,3.9067864E0,0E0,0E0,0E0,0E0,4.3116546E0,0E0,1.9473611E0,0E0,0E0,1.1350557E0,0E0,0E0,0E0,0E0,0E0],"parents":[2147483647,0,0,1,1,2,2,3,3,4,4,6,6,8,8,9,9,10,10,11,11,16,16,18,18,21,21],"right_children":[2,4,6,8,10,-1,12,-1,14,16,18,20,-1,-1,-1,-1,22,-1,24,-1,-1,26,-1,-1,-1,-1,-1],"split_conditions":[1.386E2,4.314701E1,3.1242073E0,1.3536418E2,3.0303488E0,-3.1786708E-3,6.8668765E-1,-0E0,1.4068755E0,3.5999162E0,1E0,4.8541542E1,6.7618385E-2,-8.660486E-2,-1.0201552E-2,-6.846939E-2,2.11E0,5.405662E-2,3.363163E-3,-1.5157816E-2,4.66233E-2,2.086E1,-3.96556E-2,-1.6315732E-2,2.799255E-2,-0E0,3.9999735E-2],"split_indices":[16,1,26,10,7,0,32,0,32,12,5,1,0,0,0,0,14,0,0,0,0,16,0,0,0,0,0],"split_type":[0,0,0,0,0,0,0,0,0,0,0,0,0,0,0,0,0,0,0,0,0,0,0,0,0,0,0],"sum_hessian":[1.6962108E2,1.0532974E2,6.429134E1,3.3768696E1,7.156104E1,6.047786E0,5.824356E1,8.879537E0,2.488916E1,3.4472694E1,3.708835E1,1.7625593E1,4.0617966E1,1.859713E1,6.2920303E0,1.0466136E1,2.4006557E1,1.6489674E1,2.0598677E1,6.4188323E0,1.120676E1,1.6207737E1,7.7988195E0,1.1545317E1,9.05336E0,6.276487E0,9.931251E0],"tree_param":{"num_deleted":"0","num_feature":"40","num_nodes":"27","size_leaf_vector":"1"}},{"base_weights":[7.19931E-2,3.9434505E-1,-3.603105E-1,1.1651368E-1,7.2117634E-2,-1.0023423E0,-0E0,-1.4472933E-1,5.292642E-1,-9.074737E-2,-1.2115609E-2,-6.018209E-1,3.2074106E-1,-5.453255E-1,4.087209E-1,-0E0,6.0427405E-2,-9.9381566E-2,-0E0,-9.852636E-4,4.681769E-2,-9.8685704E-2,-7.5686924E-2,5.138963E-2,-0E0,1.6534474E-2,-3.3693116E-2],"categories":[],"categories_nodes":[],"categories_segments":[],"categories_sizes":[],"default_left":[0,0,0,0,0,0,0,0,0,0,0,0,0,0,0,0,0,0,0,0,0,0,0,0,0,0,0],"id":30,"left_children":[1,3,5,7,-1,9,11,13,15,-1,-1,17,19,21,23,-1,-1,-1,-1,-1,-1,-1,25,-1,-1,-1,-1],"loss_changes":[2.2698011E1,1.2508219E1,1.7155811E1,7.942428E0,0E0,1.4105091E0,8.012483E0,9.190186E0,4.2053585E0,0E0,0E0,7.701195E0,3.9851937E0,6.2613378E0,1.4125929E0,0E0,0E0,0E0,0E0,0E0,0E0,0E0,2.4187288E0,0E0,0E0,0E0,0E0],"parents":[2147483647,0,0,1,1,2,2,3,3,5,5,6,6,7,7,8,8,11,11,12,12,13,13,14,14,22,22],"right_children":[2,4,6,8,-1,10,12,14,16,-1,-1,18,20,22,24,-1,-1,-1,-1,-1,-1,-1,26,-1,-1,-1,-1],"split_conditions":[9.799288E-1,3.363163E-3,2.1311722E0,1.386E2,7.2117634E-2,4.823652E-1,3.2126176E-1,2.8635211E-5,1.6611114E-2,-9.074737E-2,-1.2115609E-2,8.191E1,3.572E1,1.6684563E0,2.123189E0,-0E0,6.0427405E-2,-9.9381566E-2,-0E0,-9.852636E-4,4.681769E-2,-9.8685704E-2,1.23164944E-1,5.138963E-2,-0E0,1.6534474E-2,-3.3693116E-2],"split_indices":[4,4,37,16,0,11,11,27,23,0,0,16,16,14,23,0,0,0,0,0,0,0,39,0,0,0,0],"split_type":[0,0,0,0,0,0,0,0,0,0,0,0,0,0,0,0,0,0,0,0,0,0,0,0,0,0,0],"sum_hessian":[1.600292E2,9.402858E1,6.600063E1,6.542401E1,2.8604568E1,2.4557283E1,4.1443348E1,3.7973164E1,2.745085E1,1.8111969E1,6.4453135E0,1.2301294E1,2.9142056E1,2.385458E1,1.4118583E1,8.992315E0,1.8458534E1,6.2806E0,6.0206943E0,1.13197775E1,1.7822277E1,6.999571E0,1.685501E1,7.625276E0,6.4933066E0,6.990284E0,9.864724E0],"tree_param":{"num_deleted":"0","num_feature":"40","num_nodes":"27","size_leaf_vector":"1"}},{"base_weights":[8.70391E-2,-3.1431016E-1,5.440521E-1,-8.013262E-1,-0E0,-0E0,5.443745E-2,-8.696724E-2,-0E0,2.3708834E-1,-1.12971425E-1,-3.931606E-2,3.2697104E-2,6.6522026E-1,-1.8623775E-2,5.545842E-3,6.342634E-2,-3.1007507E-1,2.7019838E-2,2.3895751E-3,-5.6636915E-2],"categories":[],"categories_nodes":[],"categories_segments":[],"categories_sizes":[],"default_left":[0,0,0,0,0,0,0,0,0,0,0,0,0,0,0,0,0,0,0,0,0],"id":31,"left_children":[1,3,5,7,9,11,-1,-1,-1,13,-1,-1,-1,15,17,-1,-1,19,-1,-1,-1],"loss_changes":[2.9465576E1,1.2530706E1,7.3345566E0,7.2697353E0,1.858682E1,4.2898493E0,0E0,0E0,0E0,6.098859E0,0E0,0E0,0E0,2.5091743E-1,2.9820178E0,0E0,0E0,3.9484425E0,0E0,0E0,0E0],"parents":[2147483647,0,0,1,1,2,2,3,3,4,4,5,5,9,9,13,13,14,14,17,17],"right_children":[2,4,6,8,10,12,-1,-1,-1,14,-1,-1,-1,16,18,-1,-1,20,-1,-1,-1],"split_conditions":[3.053608E-5,3.0303488E0,3.633E1,1.7583903E-4,2.0007126E2,5.722E1,5.443745E-2,-8.696724E-2,-0E0,2.1167568E1,-1.12971425E-1,-3.931606E-2,3.2697104E-2,3.976354E1,3.0979183E0,5.545842E-3,6.342634E-2,5.557352E0,2.7019838E-2,2.3895751E-3,-5.6636915E-2],"split_indices":[38,7,16,28,26,15,0,0,0,2,0,0,0,1,22,0,0,9,0,0,0],"split_type":[0,0,0,0,0,0,0,0,0,0,0,0,0,0,0,0,0,0,0,0,0],"sum_hessian":[1.5615091E2,8.132022E1,7.4830696E1,3.1008348E1,5.031187E1,1.6933693E1,5.7897003E1,2.0489689E1,1.0518659E1,4.413845E1,6.173418E0,8.2464905E0,8.687203E0,1.8318161E1,2.582029E1,6.611382E0,1.170678E1,1.7190695E1,8.629595E0,7.9489994E0,9.241695E0],"tree_param":{"num_deleted":"0","num_feature":"40","num_nodes":"21","size_leaf_vector":"1"}},{"base_weights":[8.476651E-2,-2.6799947E-1,4.9972746E-1,-5.334193E-1,3.0402493E-1,-1.69251E-2,5.98141E-1,-8.757391E-1,-0E0,5.6744125E-2,-0E0,7.008697E-1,5.7860546E-2,-8.540397E-2,-0E0,3.5375324E-1,-3.7845887E-2,2.3374382E-2,-2.7661726E-2,4.023336E-1,7.0815094E-2,3.4094427E-2,-6.860585E-3,-0E0,4.8034396E-2,-0E0,5.1185194E-2],"categories":[],"categories_nodes":[],"categories_segments":[],"categories_sizes":[],"default_left":[0,0,0,0,0,0,0,0,0,0,0,0,0,0,0,0,0,0,0,0,0,0,0,0,0,0,0],"id":32,"left_children":[1,3,5,7,9,-1,11,13,15,-1,17,19,21,-1,-1,23,-1,-1,-1,25,-1,-1,-1,-1,-1,-1,-1],"loss_changes":[2.264626E1,1.2748807E1,5.9184494E0,1.1512936E1,3.6586423E0,0E0,2.2880802E0,8.438223E0,3.9125283E0,0E0,1.7704002E0,7.5538063E-1,1.4921299E0,0E0,0E0,1.3052499E0,0E0,0E0,0E0,2.6014662E0,0E0,0E0,0E0,0E0,0E0,0E0,0E0],"parents":[2147483647,0,0,1,1,2,2,3,3,4,4,6,6,7,7,8,8,10,10,11,11,12,12,15,15,19,19],"right_children":[2,4,6,8,10,-1,12,14,16,-1,18,20,22,-1,-1,24,-1,-1,-1,26,-1,-1,-1,-1,-1,-1,-1],"split_conditions":[3.053608E-5,1.386E2,1.151E1,6.013569E0,2.055E1,-1.69251E-2,9.767281E-1,9.072126E0,1.0981084E1,5.6744125E-2,4.487504E0,2.823267E-4,6.988292E-3,-8.540397E-2,-0E0,4.9070377E1,-3.7845887E-2,2.3374382E-2,-2.7661726E-2,5.2176332E0,7.0815094E-2,3.4094427E-2,-6.860585E-3,-0E0,4.8034396E-2,-0E0,5.1185194E-2],"split_indices":[38,16,16,7,2,0,6,37,7,0,7,6,38,0,0,1,0,0,0,19,0,0,0,0,0,0,0],"split_type":[0,0,0,0,0,0,0,0,0,0,0,0,0,0,0,0,0,0,0,0,0,0,0,0,0,0,0],"sum_hessian":[1.4965988E2,7.886572E1,7.079417E1,5.599403E1,2.2871689E1,6.211323E0,6.458284E1,3.50302E1,2.0963827E1,9.52284E0,1.3348849E1,5.1270546E1,1.3312296E1,2.7947956E1,7.082247E0,1.3854637E1,7.1091905E0,6.39828E0,6.950569E0,2.6709095E1,2.4561451E1,6.242102E0,7.0701933E0,6.94355E0,6.9110875E0,1.1961887E1,1.4747207E1],"tree_param":{"num_deleted":"0","num_feature":"40","num_nodes":"27","size_leaf_vector":"1"}},{"base_weights":[9.992817E-2,4.2183894E-1,-2.8317946E-1,6.354446E-2,1.0649029E-1,-8.538077E-1,5.079765E-2,-1.4599673E-1,5.1962603E-2,-8.2464926E-2,-0E0,3.491091E-1,-4.035795E-1,-4.342236E-2,1.1818351E-2,-1.3714179E-2,6.7033106E-1,-6.317251E-2,-0E0,-2.1339763E-2,2.8175771E-2,6.562559E-2,-0E0],"categories":[],"categories_nodes":[],"categories_segments":[],"categories_sizes":[],"default_left":[0,0,0,0,0,0,0,0,0,0,0,0,0,0,0,0,0,0,0,0,0,0,0],"id":33,"left_children":[1,3,5,-1,7,9,11,13,-1,-1,-1,15,17,-1,19,-1,21,-1,-1,-1,-1,-1,-1],"loss_changes":[1.911323E1,9.257963E0,1.4327219E1,0E0,8.542579E0,4.4755135E0,5.7496924E0,3.2892232E0,0E0,0E0,0E0,5.782589E0,3.1348116E0,0E0,2.7157655E0,0E0,1.1433277E0,0E0,0E0,0E0,0E0,0E0,0E0],"parents":[2147483647,0,0,1,1,2,2,4,4,5,5,6,6,7,7,11,11,12,12,14,14,16,16],"right_children":[2,4,6,-1,8,10,12,14,-1,-1,-1,16,18,-1,20,-1,22,-1,-1,-1,-1,-1,-1],"split_conditions":[1E0,9.865152E-1,2.4261687E0,6.354446E-2,2.8635211E-5,9.8356754E-1,2.0007126E2,1.4226396E2,5.1962603E-2,-8.2464926E-2,-0E0,1.4863887E1,5.4476824E0,-4.342236E-2,8.4698014E-4,-1.3714179E-2,1.7264265E1,-6.317251E-2,-0E0,-2.1339763E-2,2.8175771E-2,6.562559E-2,-0E0],"split_indices":[4,3,37,0,27,32,26,10,0,0,0,26,19,0,8,0,24,0,0,0,0,0,0],"split_type":[0,0,0,0,0,0,0,0,0,0,0,0,0,0,0,0,0,0,0,0,0,0,0],"sum_hessian":[1.5066629E2,8.426332E1,6.640297E1,3.3504147E1,5.075918E1,2.5739918E1,4.066305E1,3.3730007E1,1.7029171E1,1.961146E1,6.128459E0,2.7016842E1,1.3646209E1,1.1344069E1,2.2385939E1,8.3794565E0,1.8637386E1,6.965003E0,6.681206E0,9.792587E0,1.259335E1,1.25051155E1,6.132271E0],"tree_param":{"num_deleted":"0","num_feature":"40","num_nodes":"23","size_leaf_vector":"1"}},{"base_weights":[5.86552E-2,-2.1210177E-1,5.538667E-1,1.5057318E-1,-5.4164976E-1,9.487014E-2,7.829744E-1,-2.4016282E-1,6.744524E-2,-8.0875054E-2,-1.5994403E-1,4.4301993E-1,-3.222279E-2,6.693991E-2,7.884079E-3,-5.5209905E-1,3.192916E-2,1.9292998E-1,-7.151391E-2,5.4216024E-2,-0E0,-0E0,-7.6679565E-2,-1.4929141E-2,4.312778E-2],"categories":[],"categories_nodes":[],"categories_segments":[],"categories_sizes":[],"default_left":[0,0,0,0,0,0,0,0,0,0,0,0,0,0,0,0,0,0,0,0,0,0,0,0,0],"id":34,"left_children":[1,3,5,7,9,11,13,15,-1,-1,17,19,-1,-1,-1,21,-1,23,-1,-1,-1,-1,-1,-1,-1],"loss_changes":[1.9811396E1,1.1603762E1,3.9519157E0,1.3216951E1,7.546524E0,4.1205144E0,2.1257591E-1,5.9358273E0,0E0,0E0,1.0282116E1,1.3044543E0,0E0,0E0,0E0,4.7867775E0,0E0,3.8624225E0,0E0,0E0,0E0,0E0,0E0,0E0,0E0],"parents":[2147483647,0,0,1,1,2,2,3,3,4,4,5,5,6,6,7,7,10,10,11,11,15,15,17,17],"right_children":[2,4,6,8,10,12,14,16,-1,-1,18,20,-1,-1,-1,22,-1,24,-1,-1,-1,-1,-1,-1,-1],"split_conditions":[1.4314308E2,1E0,2.2644732E0,2.5447741E-2,3.884639E1,8.864424E-1,1.0393936E-2,5.737804E1,6.744524E-2,-8.0875054E-2,8.421189E-1,9.7121733E-1,-3.222279E-2,6.693991E-2,7.884079E-3,2.6618168E-1,3.192916E-2,1.0094949E0,-7.151391E-2,5.4216024E-2,-0E0,-0E0,-7.6679565E-2,-1.4929141E-2,4.312778E-2],"split_indices":[16,5,37,5,26,4,38,1,0,0,6,3,0,0,0,34,0,5,0,0,0,0,0,0,0],"split_type":[0,0,0,0,0,0,0,0,0,0,0,0,0,0,0,0,0,0,0,0,0,0,0,0,0],"sum_hessian":[1.4108466E2,8.939632E1,5.1688347E1,4.036733E1,4.9028984E1,2.0293505E1,3.1394842E1,2.5270193E1,1.5097137E1,1.8054913E1,3.097407E1,1.4219414E1,6.0740914E0,2.5147818E1,6.2470245E0,1.9052322E1,6.2178707E0,2.0352345E1,1.0621726E1,7.4461765E0,6.773237E0,9.313507E0,9.738815E0,7.929231E0,1.2423113E1],"tree_param":{"num_deleted":"0","num_feature":"40","num_nodes":"25","size_leaf_vector":"1"}},{"base_weights":[3.0468853E-2,-2.354208E-1,3.872175E-1,-5.38656E-1,1.6814354E-1,6.0372305E-1,-1.4925574E-1,-8.7000385E-2,-1.0939755E-1,4.3460143E-1,-4.74905E-2,6.1293673E-2,-1.698999E-2,-5.0377723E-2,8.915662E-3,1.515149E-1,-5.802874E-1,7.132468E-1,-1.7226128E-2,3.4471516E-2,-1.2655136E-2,-0E0,-7.8990825E-2,6.836268E-2,-0E0],"categories":[],"categories_nodes":[],"categories_segments":[],"categories_sizes":[],"default_left":[0,0,0,0,0,0,0,0,0,0,0,0,0,0,0,0,0,0,0,0,0,0,0,0,0],"id":35,"left_children":[1,3,5,7,9,11,13,-1,15,17,-1,-1,-1,-1,-1,19,21,23,-1,-1,-1,-1,-1,-1,-1],"loss_changes":[1.4233024E1,1.0747255E1,8.519227E0,1.0347006E1,7.0395436E0,9.205971E0,3.397345E0,0E0,4.7483783E0,6.072437E0,0E0,0E0,0E0,0E0,0E0,2.3795462E0,3.4566364E0,1.3074131E0,0E0,0E0,0E0,0E0,0E0,0E0,0E0],"parents":[2147483647,0,0,1,1,2,2,3,3,4,4,5,5,6,6,8,8,9,9,15,15,16,16,17,17],"right_children":[2,4,6,8,10,12,14,-1,16,18,-1,-1,-1,-1,-1,20,22,24,-1,-1,-1,-1,-1,-1,-1],"split_conditions":[3.053608E-5,1.7583903E-4,2E0,3.0303488E0,7.257195E-1,1.4942903E-2,1.175E2,-8.7000385E-2,9E0,4.7783237E-2,-4.74905E-2,6.1293673E-2,-1.698999E-2,-5.0377723E-2,8.915662E-3,7.994104E-1,5.7393804E0,5.0945554E0,-1.7226128E-2,3.4471516E-2,-1.2655136E-2,-0E0,-7.8990825E-2,6.836268E-2,-0E0],"split_indices":[38,28,5,7,0,38,16,0,7,28,0,0,0,0,0,4,9,19,0,0,0,0,0,0,0],"split_type":[0,0,0,0,0,0,0,0,0,0,0,0,0,0,0,0,0,0,0,0,0,0,0,0,0],"sum_hessian":[1.4491924E2,8.048534E1,6.44339E1,4.817625E1,3.2309086E1,4.810038E1,1.6333517E1,1.7636187E1,3.0540064E1,2.6190742E1,6.118345E0,4.058337E1,7.517011E0,7.235365E0,9.098153E0,1.780893E1,1.2731134E1,2.0188974E1,6.0017667E0,1.1724562E1,6.0843678E0,6.2684927E0,6.4626417E0,1.4106264E1,6.0827107E0],"tree_param":{"num_deleted":"0","num_feature":"40","num_nodes":"25","size_leaf_vector":"1"}},{"base_weights":[7.814591E-2,4.013584E-1,-3.1974244E-1,6.333069E-2,4.7090303E-2,-7.898541E-1,9.563473E-2,2.834174E-1,-5.4867774E-2,-8.0331855E-2,-0E0,-3.6120463E-2,3.8988936E-1,-8.845784E-3,4.958197E-1,-2.664094E-3,4.9618747E-2,6.58493E-2,4.733835E-2,-2.1712549E-2,3.7000287E-2],"categories":[],"categories_nodes":[],"categories_segments":[],"categories_sizes":[],"default_left":[0,0,0,0,0,0,0,0,0,0,0,0,0,0,0,0,0,0,0,0,0],"id":36,"left_children":[1,3,5,-1,7,9,11,13,-1,-1,-1,-1,15,-1,17,-1,-1,-1,19,-1,-1],"loss_changes":[1.7971638E1,1.0308545E1,1.2985107E1,0E0,7.877349E0,6.844427E0,5.2366323E0,3.9540484E0,0E0,0E0,0E0,0E0,3.6083403E0,0E0,2.9326167E0,0E0,0E0,0E0,2.8016932E0,0E0,0E0],"parents":[2147483647,0,0,1,1,2,2,4,4,5,5,6,6,7,7,12,12,14,14,18,18],"right_children":[2,4,6,-1,8,10,12,14,-1,-1,-1,-1,16,-1,18,-1,-1,-1,20,-1,-1],"split_conditions":[1E0,9.860011E-1,8.840138E-1,6.333069E-2,2E0,9.960486E-3,4.926673E-1,1.6611114E-2,-5.4867774E-2,-8.0331855E-2,-0E0,-3.6120463E-2,4.2492443E1,-8.845784E-3,2.8059201E0,-2.664094E-3,4.9618747E-2,6.58493E-2,5.195E1,-2.1712549E-2,3.7000287E-2],"split_indices":[4,3,32,0,5,38,34,23,0,0,0,0,16,0,23,0,0,0,16,0,0],"split_type":[0,0,0,0,0,0,0,0,0,0,0,0,0,0,0,0,0,0,0,0,0],"sum_hessian":[1.3624434E2,7.7573364E1,5.8670975E1,3.2302097E1,4.5271267E1,2.8970133E1,2.9700844E1,3.687837E1,8.392898E0,2.2143072E1,6.82706E0,7.8876777E0,2.1813166E1,1.0170799E1,2.670757E1,6.093958E0,1.5719209E1,1.2006213E1,1.4701356E1,6.3349E0,8.366456E0],"tree_param":{"num_deleted":"0","num_feature":"40","num_nodes":"21","size_leaf_vector":"1"}},{"base_weights":[9.279218E-2,-5.001386E-1,2.3588406E-1,1.0980136E-3,-6.0575873E-2,3.1273708E-1,-4.0002912E-2,-0E0,5.730305E-1,-4.4069278E-1,3.3441803E-1,6.9547445E-1,-0E0,-6.0024504E-2,-4.240341E-4,-2.510033E-2,6.229028E-1,6.362135E-2,-0E0,-0E0,6.292993E-2],"categories":[],"categories_nodes":[],"categories_segments":[],"categories_sizes":[],"default_left":[0,0,0,0,0,0,0,0,0,0,0,0,0,0,0,0,0,0,0,0,0],"id":37,"left_children":[1,3,5,-1,-1,7,-1,9,11,13,15,17,-1,-1,-1,-1,19,-1,-1,-1,-1],"loss_changes":[1.1689365E1,5.176463E0,6.65905E0,0E0,0E0,8.756118E0,0E0,7.6999426E0,3.5727959E0,1.9565611E0,6.5059056E0,4.0863476E0,0E0,0E0,0E0,0E0,2.0082464E0,0E0,0E0,0E0,0E0],"parents":[2147483647,0,0,1,1,2,2,5,5,7,7,8,8,9,9,10,10,11,11,16,16],"right_children":[2,4,6,-1,-1,8,-1,10,12,14,16,18,-1,-1,-1,-1,20,-1,-1,-1,-1],"split_conditions":[4.724986E0,5.16E0,1.4E1,1.0980136E-3,-6.0575873E-2,3.0303488E0,-4.0002912E-2,3.053608E-5,1.9626484E0,9.232665E-3,4.715833E1,1E0,-0E0,-6.0024504E-2,-4.240341E-4,-2.510033E-2,5.16E0,6.362135E-2,-0E0,-0E0,6.292993E-2],"split_indices":[26,9,7,0,0,7,0,38,5,25,1,0,0,0,0,0,19,0,0,0,0],"split_type":[0,0,0,0,0,0,0,0,0,0,0,0,0,0,0,0,0,0,0,0,0],"sum_hessian":[1.4029718E2,2.4338627E1,1.1595855E2,7.0450535E0,1.7293573E1,1.0800058E2,7.95797E0,5.001043E1,5.799015E1,2.1111681E1,2.8898746E1,4.636892E1,1.1621233E1,9.043855E0,1.2067826E1,6.8986635E0,2.2000084E1,3.8087437E1,8.281483E0,6.8833823E0,1.5116701E1],"tree_param":{"num_deleted":"0","num_feature":"40","num_nodes":"21","size_leaf_vector":"1"}},{"base_weights":[3.643327E-2,-2.0410271E-1,4.537575E-1,-7.6055413E-1,4.7453195E-2,-0E0,6.0190934E-1,-9.513585E-1,-0E0,3.7717873E-1,-2.4579504E-1,3.666888E-2,-4.213625E-2,6.2662005E-2,-0E0,-3.0812886E-2,-9.6026525E-2,-1.2316771E-2,5.618189E-2,-5.1430263E-2,-0E0,3.152714E-2,-1.231218E-2],"categories":[],"categories_nodes":[],"categories_segments":[],"categories_sizes":[],"default_left":[0,0,0,0,0,0,0,0,0,0,0,0,0,0,0,0,0,0,0,0,0,0,0],"id":38,"left_children":[1,3,5,7,9,11,13,15,-1,17,19,-1,-1,-1,-1,-1,-1,-1,-1,-1,21,-1,-1],"loss_changes":[1.4440312E1,1.3319059E1,3.7053547E0,4.019367E0,5.9688234E0,4.046436E0,5.766775E0,3.3631897E-1,0E0,7.0084624E0,3.8987186E0,0E0,0E0,0E0,0E0,0E0,0E0,0E0,0E0,0E0,1.566796E0,0E0,0E0],"parents":[2147483647,0,0,1,1,2,2,3,3,4,4,5,5,6,6,7,7,9,9,10,10,20,20],"right_children":[2,4,6,8,10,12,14,16,-1,18,20,-1,-1,-1,-1,-1,-1,-1,-1,-1,22,-1,-1],"split_conditions":[1.4314308E2,4.314701E1,9.3564856E-1,1.5929817E0,1E0,2.691E1,2E0,9.300342E-1,-0E0,1.1031239E0,2.4122482E1,3.666888E-2,-4.213625E-2,6.2662005E-2,-0E0,-3.0812886E-2,-9.6026525E-2,-1.2316771E-2,5.618189E-2,-5.1430263E-2,2.500429E1,3.152714E-2,-1.231218E-2],"split_indices":[16,1,22,32,5,15,5,33,0,7,2,0,0,0,0,0,0,0,0,0,2,0,0],"split_type":[0,0,0,0,0,0,0,0,0,0,0,0,0,0,0,0,0,0,0,0,0,0,0],"sum_hessian":[1.3723445E2,8.481323E1,5.242122E1,2.7791441E1,5.702179E1,1.2921247E1,3.9499973E1,2.1768639E1,6.0228024E0,2.9460289E1,2.75615E1,6.8299136E0,6.091333E0,2.9459902E1,1.00400715E1,1.07547E1,1.1013938E1,1.0060459E1,1.939983E1,1.13047695E1,1.6256731E1,6.3562775E0,9.900453E0],"tree_param":{"num_deleted":"0","num_feature":"40","num_nodes":"23","size_leaf_vector":"1"}},{"base_weights":[6.832817E-3,3.1638044E-1,-3.676656E-1,1.9038338E-2,6.844086E-2,1.2905332E-1,-6.2941617E-1,-3.7445244E-1,3.0772194E-1,4.2894468E-2,-8.873422E-3,-1.067422E0,-0E0,-0E0,-6.119263E-2,-0E0,4.589393E-2,-1.2865447E-2,-9.87412E-2,-3.0228497E-2,3.5485063E-2,1.9723263E-2,-2.221962E-2],"categories":[],"categories_nodes":[],"categories_segments":[],"categories_sizes":[],"default_left":[0,0,0,0,0,0,0,0,0,0,0,0,0,0,0,0,0,0,0,0,0,0,0],"id":39,"left_children":[1,3,5,7,-1,9,11,13,15,-1,-1,17,19,-1,-1,21,-1,-1,-1,-1,-1,-1,-1],"loss_changes":[1.379978E1,1.0083773E1,7.6854258E0,5.493214E0,0E0,2.5936954E0,1.1308048E1,4.168239E0,2.928518E0,0E0,0E0,1.7098885E0,3.0409765E0,0E0,0E0,1.2810941E0,0E0,0E0,0E0,0E0,0E0,0E0,0E0],"parents":[2147483647,0,0,1,1,2,2,3,3,5,5,6,6,7,7,8,8,11,11,12,12,15,15],"right_children":[2,4,6,8,-1,10,12,14,16,-1,-1,18,20,-1,-1,22,-1,-1,-1,-1,-1,-1,-1],"split_conditions":[9.929648E-1,3.363163E-3,8.496474E-1,2.0116882E-2,6.844086E-2,5.554317E-1,6.2988877E0,5.31E0,3.053608E-5,4.2894468E-2,-8.873422E-3,9.9481806E-2,5.6384136E1,-0E0,-6.119263E-2,6.0439763E0,4.589393E-2,-1.2865447E-2,-9.87412E-2,-3.0228497E-2,3.5485063E-2,1.9723263E-2,-2.221962E-2],"split_indices":[4,4,18,13,0,3,37,9,38,0,0,39,1,0,0,9,0,0,0,0,0,0,0],"split_type":[0,0,0,0,0,0,0,0,0,0,0,0,0,0,0,0,0,0,0,0,0,0,0],"sum_hessian":[1.1739831E2,6.690734E1,5.0490963E1,4.695409E1,1.9953255E1,1.5350939E1,3.5140022E1,1.7179491E1,2.9774597E1,7.566294E0,7.7846446E0,2.1358591E1,1.3781432E1,7.808526E0,9.370966E0,1.464244E1,1.5132158E1,6.182505E0,1.5176085E1,6.1303277E0,7.651104E0,7.3666034E0,7.2758365E0],"tree_param":{"num_deleted":"0","num_feature":"40","num_nodes":"23","size_leaf_vector":"1"}},{"base_weights":[6.288352E-2,-3.7937498E-1,3.225329E-1,-7.441261E-2,-6.341164E-2,5.970295E-1,-0E0,-4.8484456E-2,1.0490544E-1,6.3586965E-2,6.0408857E-2,-3.8466924E-1,2.8240988E-1,4.975257E-1,-2.6809556E-2,3.9785624E-2,-1.2491579E-2,-6.353505E-2,1.4332919E-2,3.9060745E-2,-0E0,5.2593086E-2,-0E0],"categories":[],"categories_nodes":[],"categories_segments":[],"categories_sizes":[],"default_left":[0,0,0,0,0,0,0,0,0,0,0,0,0,0,0,0,0,0,0,0,0,0,0],"id":40,"left_children":[1,3,5,-1,7,9,11,-1,13,15,-1,17,19,21,-1,-1,-1,-1,-1,-1,-1,-1,-1],"loss_changes":[1.5158617E1,6.878807E0,7.9484224E0,0E0,4.222682E0,3.3058777E0,4.5135884E0,0E0,4.8723865E0,2.3942184E0,0E0,5.9266367E0,1.9456528E0,6.2060785E-1,0E0,0E0,0E0,0E0,0E0,0E0,0E0,0E0,0E0],"parents":[2147483647,0,0,1,1,2,2,4,4,5,5,6,6,8,8,9,9,11,11,12,12,13,13],"right_children":[2,4,6,-1,8,10,12,-1,14,16,-1,18,20,22,-1,-1,-1,-1,-1,-1,-1,-1,-1],"split_conditions":[4.314701E1,3.0303488E0,1E0,-7.441261E-2,5.60683E0,2.0116882E-2,2.328649E0,-4.8484456E-2,4.738421E0,6.3061323E-3,6.0408857E-2,5.737804E1,2.8835716E0,1.508687E0,-2.6809556E-2,3.9785624E-2,-1.2491579E-2,-6.353505E-2,1.4332919E-2,3.9060745E-2,-0E0,5.2593086E-2,-0E0],"split_indices":[1,7,4,0,26,13,22,0,19,29,0,1,8,33,0,0,0,0,0,0,0,0,0],"split_type":[0,0,0,0,0,0,0,0,0,0,0,0,0,0,0,0,0,0,0,0,0,0,0],"sum_hessian":[1.3038098E2,4.555733E1,8.4823654E1,1.3078883E1,3.247845E1,4.6203434E1,3.862022E1,9.000811E0,2.3477638E1,1.5017032E1,3.1186403E1,1.6999775E1,2.1620443E1,1.4584398E1,8.89324E0,7.010732E0,8.006299E0,1.09625635E1,6.0372114E0,1.3284424E1,8.3360195E0,8.406374E0,6.178025E0],"tree_param":{"num_deleted":"0","num_feature":"40","num_nodes":"23","size_leaf_vector":"1"}},{"base_weights":[9.345881E-2,3.5267016E-1,-1.9009724E-1,6.1723094E-2,8.662723E-3,-6.2617683E-1,8.9759044E-2,-4.267648E-2,2.7892828E-1,-7.072969E-2,-0E0,3.6376393E-1,-4.5150872E-2,5.842294E-2,-0E0,-3.1664523E-3,4.775193E-2,-4.9222566E-2,4.2330053E-2],"categories":[],"categories_nodes":[],"categories_segments":[],"categories_sizes":[],"default_left":[0,0,0,0,0,0,0,0,0,0,0,0,0,0,0,0,0,0,0],"id":41,"left_children":[1,3,5,-1,7,9,11,-1,13,-1,-1,15,-1,-1,17,-1,-1,-1,-1],"loss_changes":[9.869437E0,9.674414E0,8.241433E0,0E0,6.409405E0,5.1171E0,6.3406315E0,0E0,4.953457E0,0E0,0E0,3.9146168E0,0E0,0E0,7.9046803E0,0E0,0E0,0E0,0E0],"parents":[2147483647,0,0,1,1,2,2,4,4,5,5,6,6,8,8,11,11,14,14],"right_children":[2,4,6,-1,8,10,12,-1,14,-1,-1,16,-1,-1,18,-1,-1,-1,-1],"split_conditions":[9.929648E-1,9.865152E-1,3.5238647E-1,6.1723094E-2,1.6611114E-2,3.363163E-3,1.5514853E2,-4.267648E-2,2.7742064E0,-7.072969E-2,-0E0,6.5074664E-1,-4.5150872E-2,5.842294E-2,1.1242376E2,-3.1664523E-3,4.775193E-2,-4.9222566E-2,4.2330053E-2],"split_indices":[4,3,11,0,23,0,10,0,23,0,0,32,0,0,16,0,0,0,0],"split_type":[0,0,0,0,0,0,0,0,0,0,0,0,0,0,0,0,0,0,0],"sum_hessian":[1.2814581E2,6.998538E1,5.816044E1,2.7337454E1,4.2647926E1,2.4572813E1,3.3587624E1,1.1303021E1,3.1344904E1,1.6658176E1,7.9146376E0,2.6147083E1,7.4405413E0,1.166975E1,1.9675154E1,7.9986634E0,1.8148418E1,9.623798E0,1.0051356E1],"tree_param":{"num_deleted":"0","num_feature":"40","num_nodes":"19","size_leaf_vector":"1"}},{"base_weights":[5.728398E-2,-4.0909314E-1,1.9636872E-1,8.1182085E-3,-8.831292E-1,4.713354E-1,-9.607085E-2,-1.0408176E-1,-8.135066E-3,-4.4010696E-3,5.8816636E-1,8.028429E-2,-6.9444284E-2,7.238181E-1,-0E0,-2.1223632E-1,4.342976E-1,-0E0,6.1941717E-2,-4.015787E-2,-0E0,-0E0,5.4596674E-2],"categories":[],"categories_nodes":[],"categories_segments":[],"categories_sizes":[],"default_left":[0,0,0,0,0,0,0,0,0,0,0,0,0,0,0,0,0,0,0,0,0,0,0],"id":42,"left_children":[1,3,5,-1,7,9,11,-1,-1,-1,13,15,-1,17,-1,19,21,-1,-1,-1,-1,-1,-1],"loss_changes":[7.789762E0,7.8260636E0,8.697894E0,0E0,3.0000181E0,4.3263254E0,8.109676E0,0E0,0E0,0E0,4.7321873E0,4.350318E0,0E0,1.1885147E0,0E0,1.8229477E0,2.4024444E0,0E0,0E0,0E0,0E0,0E0,0E0],"parents":[2147483647,0,0,1,1,2,2,4,4,5,5,6,6,10,10,11,11,13,13,15,15,16,16],"right_children":[2,4,6,-1,8,10,12,-1,-1,-1,14,16,-1,18,-1,20,22,-1,-1,-1,-1,-1,-1],"split_conditions":[2.709309E-1,2.8933796E-1,1E0,8.1182085E-3,1.5326736E2,2.1348025E-4,2E0,-1.0408176E-1,-8.135066E-3,-4.4010696E-3,8.233639E-3,4.715833E1,-6.9444284E-2,1.1031239E0,-0E0,8.4698014E-4,2.0491345E0,-0E0,6.1941717E-2,-4.015787E-2,-0E0,-0E0,5.4596674E-2],"split_indices":[11,34,3,0,26,36,5,0,0,0,36,1,0,7,0,8,7,0,0,0,0,0,0],"split_type":[0,0,0,0,0,0,0,0,0,0,0,0,0,0,0,0,0,0,0,0,0,0,0],"sum_hessian":[1.230802E2,2.4876236E1,9.820396E1,1.0618167E1,1.425807E1,5.32881E1,4.491586E1,6.9036865E0,7.354383E0,7.0703917E0,4.621771E1,3.6022156E1,8.8937025E0,3.914156E1,7.076149E0,1.7308325E1,1.871383E1,6.192272E0,3.2949287E1,8.466967E0,8.841357E0,7.7890687E0,1.0924763E1],"tree_param":{"num_deleted":"0","num_feature":"40","num_nodes":"23","size_leaf_vector":"1"}},{"base_weights":[6.240692E-2,-5.1239264E-1,1.8720464E-1,-6.884186E-2,-0E0,4.2904395E-1,-9.0784535E-2,6.1715823E-2,1.3162845E-1,4.5597125E-2,-6.373023E-2,-1.7317375E-2,4.9345076E-2,-2.7783878E-2,2.538292E-1,1.8722614E-2,-3.383369E-1,4.6000104E-2,-7.6665045E-3,-5.023061E-2,-0E0],"categories":[],"categories_nodes":[],"categories_segments":[],"categories_sizes":[],"default_left":[0,0,0,0,0,0,0,0,0,0,0,0,0,0,0,0,0,0,0,0,0],"id":43,"left_children":[1,3,5,-1,-1,7,9,-1,11,13,-1,15,-1,-1,17,-1,19,-1,-1,-1,-1],"loss_changes":[8.264011E0,4.816852E0,7.5668874E0,0E0,0E0,4.822484E0,6.020964E0,0E0,3.908379E0,3.1284122E0,0E0,2.5360754E0,0E0,0E0,4.434188E0,0E0,2.246759E0,0E0,0E0,0E0,0E0],"parents":[2147483647,0,0,1,1,2,2,5,5,6,6,8,8,9,9,11,11,14,14,16,16],"right_children":[2,4,6,-1,-1,8,10,-1,12,14,-1,16,-1,-1,18,-1,20,-1,-1,-1,-1],"split_conditions":[9.401425E-1,5.030361E1,9.8177814E-1,-6.884186E-2,-0E0,1E0,3.9591312E-2,6.1715823E-2,2.674338E1,1.8457758E1,-6.373023E-2,3.0657196E0,4.9345076E-2,-2.7783878E-2,2.1484322E1,1.8722614E-2,3.363163E-3,4.6000104E-2,-7.6665045E-3,-5.023061E-2,-0E0],"split_indices":[37,1,4,0,0,3,13,0,2,26,0,12,0,0,24,0,0,0,0,0,0],"split_type":[0,0,0,0,0,0,0,0,0,0,0,0,0,0,0,0,0,0,0,0,0],"sum_hessian":[1.2024742E2,1.8308067E1,1.01939354E2,1.1106944E1,7.201123E0,5.7497402E1,4.4441948E1,2.189694E1,3.560046E1,3.6513103E1,7.9288464E0,2.586438E1,9.736082E0,9.221851E0,2.7291252E1,1.1433834E1,1.4430546E1,1.5837546E1,1.1453705E1,8.186912E0,6.243634E0],"tree_param":{"num_deleted":"0","num_feature":"40","num_nodes":"21","size_leaf_vector":"1"}},{"base_weights":[1.4028384E-1,-5.2735287E-1,3.195941E-1,-6.814773E-2,-0E0,-1.8641299E-2,4.120076E-1,5.4195374E-1,4.3630056E-2,2.8454784E-1,6.854064E-2,-4.939053E-2,3.8935962E-1,5.2605635E-1,-1.10270735E-2,4.992687E-2,-0E0,-0E0,5.536754E-2],"categories":[],"categories_nodes":[],"categories_segments":[],"categories_sizes":[],"default_left":[0,0,0,0,0,0,0,0,0,0,0,0,0,0,0,0,0,0,0],"id":44,"left_children":[1,3,5,-1,-1,-1,7,9,11,13,-1,-1,15,17,-1,-1,-1,-1,-1],"loss_changes":[1.4009994E1,5.7400885E0,5.411043E0,0E0,0E0,0E0,3.0558186E0,3.0724125E0,6.311229E0,4.8015018E0,0E0,0E0,2.3024795E0,2.224277E0,0E0,0E0,0E0,0E0,0E0],"parents":[2147483647,0,0,1,1,2,2,6,6,7,7,8,8,9,9,12,12,13,13],"right_children":[2,4,6,-1,-1,-1,8,10,12,14,-1,-1,16,18,-1,-1,-1,-1,-1],"split_conditions":[1.9469917E1,2.8635211E-5,9.0445304E-1,-6.814773E-2,-0E0,-1.8641299E-2,1E0,2.823267E-4,3.3195853E-1,6.25E0,6.854064E-2,-4.939053E-2,7.11E0,1.8120693E0,-1.10270735E-2,4.992687E-2,-0E0,-0E0,5.536754E-2],"split_indices":[16,27,37,0,0,0,6,6,11,9,0,0,9,14,0,0,0,0,0],"split_type":[0,0,0,0,0,0,0,0,0,0,0,0,0,0,0,0,0,0,0],"sum_hessian":[1.1714043E2,2.2260778E1,9.487965E1,1.4298545E1,7.9622326E0,1.0459407E1,8.442024E1,5.8511143E1,2.5909098E1,3.792037E1,2.0590773E1,6.6396728E0,1.9269424E1,2.6661963E1,1.1258406E1,1.152664E1,7.742785E0,8.842374E0,1.781959E1],"tree_param":{"num_deleted":"0","num_feature":"40","num_nodes":"19","size_leaf_vector":"1"}},{"base_weights":[3.611826E-2,2.4496016E-1,-3.560667E-1,-0E0,6.955638E-2,-9.84763E-2,2.0974103E-2,-5.078796E-1,1.9908221E-1,3.041151E-1,-4.0558722E-2,-0E0,-6.627548E-2,-0E0,5.7310116E-1,-3.8169767E-3,5.1322136E-2,2.3635809E-1,-4.704955E-2,5.8702745E-2,-0E0,-1.0365629E-2,4.6991985E-2],"categories":[],"categories_nodes":[],"categories_segments":[],"categories_sizes":[],"default_left":[0,0,0,0,0,0,0,0,0,0,0,0,0,0,0,0,0,0,0,0,0,0,0],"id":45,"left_children":[1,3,5,7,-1,-1,9,11,13,15,-1,-1,-1,17,19,-1,-1,21,-1,-1,-1,-1,-1],"loss_changes":[9.54352E0,1.4374304E1,1.5701702E1,6.462641E0,0E0,0E0,4.0454235E0,4.000345E0,3.822886E0,3.8094125E0,0E0,0E0,0E0,4.3714542E0,6.216874E-1,0E0,0E0,3.3795822E0,0E0,0E0,0E0,0E0,0E0],"parents":[2147483647,0,0,1,1,2,2,3,3,6,6,7,7,8,8,9,9,13,13,14,14,17,17],"right_children":[2,4,6,8,-1,-1,10,12,14,16,-1,-1,-1,18,20,-1,-1,22,-1,-1,-1,-1,-1],"split_conditions":[1E0,2.823267E-4,3.3195853E-1,6.026117E0,6.955638E-2,-9.84763E-2,1.546497E2,1.3892016E-2,3.363163E-3,1.43102E2,-4.0558722E-2,-0E0,-6.627548E-2,1.4345866E2,3.3195853E-1,-3.8169767E-3,5.1322136E-2,1.8077365E0,-4.704955E-2,5.8702745E-2,-0E0,-1.0365629E-2,4.6991985E-2],"split_indices":[6,6,11,26,0,0,10,13,0,10,0,0,0,10,11,0,0,14,0,0,0,0,0],"split_type":[0,0,0,0,0,0,0,0,0,0,0,0,0,0,0,0,0,0,0,0,0,0,0],"sum_hessian":[1.1638735E2,7.912245E1,3.7264896E1,5.703954E1,2.2082916E1,1.1245323E1,2.6019575E1,1.7609053E1,3.9430485E1,1.961452E1,6.4050555E0,6.982352E0,1.06267E1,2.4090181E1,1.5340304E1,8.089603E0,1.1524915E1,1.6293499E1,7.796682E0,9.1106415E0,6.2296634E0,6.27944E0,1.001406E1],"tree_param":{"num_deleted":"0","num_feature":"40","num_nodes":"23","size_leaf_vector":"1"}},{"base_weights":[1.1344878E-1,2.8230393E-1,-2.2166945E-1,3.224226E-2,6.90839E-2,-7.066739E-1,-0E0,-3.6041123E-1,4.0512863E-1,-1.9758896E-3,-7.519232E-2,2.8908008E-1,-3.547667E-2,-0E0,-7.2593905E-2,5.8268446E-1,-0E0,-0E0,3.955729E-2,-3.7250146E-2,2.666589E-1,-0E0,5.6475047E-2,-0E0,3.2955363E-2],"categories":[],"categories_nodes":[],"categories_segments":[],"categories_sizes":[],"default_left":[0,0,0,0,0,0,0,0,0,0,0,0,0,0,0,0,0,0,0,0,0,0,0,0,0],"id":46,"left_children":[1,3,5,7,-1,9,11,13,15,-1,-1,17,-1,19,-1,21,-1,-1,-1,-1,23,-1,-1,-1,-1],"loss_changes":[7.2213187E0,1.1777778E1,5.328839E0,9.771374E0,0E0,9.379029E-1,3.3099256E0,6.0352726E0,2.8323722E0,0E0,0E0,1.7962905E0,0E0,2.84598E0,0E0,1.1989737E0,0E0,0E0,0E0,0E0,4.0227032E-1,0E0,0E0,0E0,0E0],"parents":[2147483647,0,0,1,1,2,2,3,3,5,5,6,6,7,7,8,8,11,11,13,13,15,15,20,20],"right_children":[2,4,6,8,-1,10,12,14,16,-1,-1,18,-1,20,-1,22,-1,-1,-1,-1,24,-1,-1,-1,-1],"split_conditions":[1E0,2.823267E-4,3.5238647E-1,5.0048127E0,6.90839E-2,2.5712678E-1,1.0050077E2,6.18E0,2.963283E-2,-1.9758896E-3,-7.519232E-2,2.9548338E-1,-3.547667E-2,2.811518E-1,-7.2593905E-2,5.154669E-3,-0E0,-0E0,3.955729E-2,-3.7250146E-2,1.82E0,-0E0,5.6475047E-2,-0E0,3.2955363E-2],"split_indices":[6,6,11,19,0,34,26,9,13,0,0,34,0,11,0,20,0,0,0,0,14,0,0,0,0],"split_type":[0,0,0,0,0,0,0,0,0,0,0,0,0,0,0,0,0,0,0,0,0,0,0,0,0],"sum_hessian":[1.2322768E2,8.55039E1,3.772378E1,6.3807213E1,2.1696686E1,1.3298637E1,2.4425142E1,2.8836493E1,3.497072E1,6.014827E0,7.2838106E0,1.7467854E1,6.9572887E0,1.8971323E1,9.865169E0,2.4626526E1,1.0344193E1,6.080371E0,1.1387483E1,6.819272E0,1.2152052E1,7.4847636E0,1.7141762E1,6.048621E0,6.1034303E0],"tree_param":{"num_deleted":"0","num_feature":"40","num_nodes":"25","size_leaf_vector":"1"}},{"base_weights":[1.1654398E-1,-7.851664E-2,5.0977737E-1,-8.119771E-2,2.5696566E-2,6.3592756E-1,-0E0,-1.4850962E-1,5.0801665E-1,-0E0,5.8199625E-2,-0E0,-8.046113E-2,5.4426536E-2,-0E0,-3.413473E-2,1.5938558E-1,4.6980527E-1,-2.6888574E-2,-0E0,4.614854E-2,-3.883723E-2,2.2129215E-2],"categories":[],"categories_nodes":[],"categories_segments":[],"categories_sizes":[],"default_left":[0,0,0,0,0,0,0,0,0,0,0,0,0,0,0,0,0,0,0,0,0,0,0],"id":47,"left_children":[1,3,5,-1,7,9,-1,11,13,-1,-1,15,-1,-1,-1,-1,17,19,21,-1,-1,-1,-1],"loss_changes":[1.00427685E1,9.871271E0,3.5351496E0,0E0,6.654611E0,1.6174831E0,0E0,8.090044E0,2.3013887E0,0E0,0E0,2.7750216E0,0E0,0E0,0E0,0E0,2.793266E0,1.7718005E-1,3.4917176E0,0E0,0E0,0E0,0E0],"parents":[2147483647,0,0,1,1,2,2,4,4,5,5,7,7,8,8,11,11,16,16,17,17,18,18],"right_children":[2,4,6,-1,8,10,-1,12,14,-1,-1,16,-1,-1,-1,-1,18,20,22,-1,-1,-1,-1],"split_conditions":[1.4314308E2,4.51E0,4.47E0,-8.119771E-2,1.717866E0,5.4526734E0,-0E0,1.7508711E0,9.8621076E-1,-0E0,5.8199625E-2,8.1348784E-2,-8.046113E-2,5.4426536E-2,-0E0,-3.413473E-2,2.0817538E-1,9.8593675E-2,4.715833E1,-0E0,4.614854E-2,-3.883723E-2,2.2129215E-2],"split_indices":[16,19,12,0,32,26,0,5,6,0,0,7,0,0,0,0,39,39,1,0,0,0,0],"split_type":[0,0,0,0,0,0,0,0,0,0,0,0,0,0,0,0,0,0,0,0,0,0,0],"sum_hessian":[1.19358765E2,7.748143E1,4.1877335E1,7.9755783E0,6.950585E1,3.5222652E1,6.654681E0,4.9035408E1,2.0470444E1,8.097758E0,2.7124893E1,4.1898804E1,7.136605E0,1.443991E1,6.0305343E0,8.326189E0,3.3572613E1,1.5392164E1,1.818045E1,6.0120955E0,9.380069E0,9.10135E0,9.0791E0],"tree_param":{"num_deleted":"0","num_feature":"40","num_nodes":"23","size_leaf_vector":"1"}},{"base_weights":[4.8446073E-3,2.7617034E-1,-2.6494202E-1,2.9096793E-2,6.40334E-2,-1.6935326E-2,-8.1931844E-2,-2.1724246E-1,4.326831E-1,-3.696239E-1,5.094828E-1,-5.102026E-1,2.823334E-2,5.1906534E-2,-0E0,-6.801344E-2,5.908422E-3,5.755567E-2,4.387506E-3,-1.1027685E-4,-6.131677E-2,-1.3050031E-2,3.3836566E-2],"categories":[],"categories_nodes":[],"categories_segments":[],"categories_sizes":[],"default_left":[0,0,0,0,0,0,0,0,0,0,0,0,0,0,0,0,0,0,0,0,0,0,0],"id":48,"left_children":[1,3,5,7,-1,9,-1,11,13,15,17,19,-1,-1,-1,-1,21,-1,-1,-1,-1,-1,-1],"loss_changes":[8.173115E0,6.592931E0,8.603622E0,4.873973E0,0E0,7.990015E0,0E0,4.8544774E0,2.2512772E0,7.077404E0,2.789464E-1,1.4884806E0,0E0,0E0,0E0,0E0,1.7719104E0,0E0,0E0,0E0,0E0,0E0,0E0],"parents":[2147483647,0,0,1,1,2,2,3,3,5,5,7,7,8,8,9,9,10,10,11,11,16,16],"right_children":[2,4,6,8,-1,10,-1,12,14,16,18,20,-1,-1,-1,-1,22,-1,-1,-1,-1,-1,-1],"split_conditions":[1E0,3.363163E-3,7.855875E-3,1.7704736E2,6.40334E-2,1.0918998E1,-8.1931844E-2,8.28E0,6.21E0,9.892153E-3,1.867864E1,3.166815E1,2.823334E-2,5.1906534E-2,-0E0,-6.801344E-2,4.869E1,5.755567E-2,4.387506E-3,-1.1027685E-4,-6.131677E-2,-1.3050031E-2,3.3836566E-2],"split_indices":[4,4,36,16,0,20,0,9,9,25,23,16,0,0,0,0,15,0,0,0,0,0,0],"split_type":[0,0,0,0,0,0,0,0,0,0,0,0,0,0,0,0,0,0,0,0,0,0,0],"sum_hessian":[1.0898482E2,5.7524693E1,5.146012E1,4.2931595E1,1.4593097E1,4.1918674E1,9.541445E0,2.4338604E1,1.8592993E1,2.7286343E1,1.4632334E1,1.8299171E1,6.039433E0,1.1775028E1,6.817965E0,1.2715244E1,1.4571098E1,6.5202155E0,8.112118E0,9.253248E0,9.045922E0,8.065612E0,6.505487E0],"tree_param":{"num_deleted":"0","num_feature":"40","num_nodes":"23","size_leaf_vector":"1"}},{"base_weights":[6.489125E-2,-1.4309858E-1,3.784994E-1,-6.6804886E-2,-0E0,-4.003282E-3,4.8919144E-1,2.1695137E-1,-4.7899333E-1,5.964316E-1,-0E0,-3.8663406E-2,5.276408E-1,-0E0,-7.016561E-2,6.858405E-1,-0E0,5.0775066E-2,-0E0,1.0636342E-3,6.34324E-2],"categories":[],"categories_nodes":[],"categories_segments":[],"categories_sizes":[],"default_left":[0,0,0,0,0,0,0,0,0,0,0,0,0,0,0,0,0,0,0,0,0],"id":49,"left_children":[1,3,5,-1,7,-1,9,11,13,15,-1,-1,17,-1,-1,19,-1,-1,-1,-1,-1],"loss_changes":[8.025096E0,6.6426644E0,3.163127E0,0E0,6.242807E0,0E0,2.4648657E0,9.333875E0,4.071362E0,1.2524929E0,0E0,0E0,1.3810587E0,0E0,0E0,1.3696613E0,0E0,0E0,0E0,0E0,0E0],"parents":[2147483647,0,0,1,1,2,2,4,4,6,6,7,7,8,8,9,9,12,12,15,15],"right_children":[2,4,6,-1,8,-1,10,12,14,16,-1,-1,18,-1,-1,20,-1,-1,-1,-1,-1],"split_conditions":[5.030361E1,2.8625526E0,3.7987253E-1,-6.6804886E-2,4.04E0,-4.003282E-3,4E-2,1.4800473E0,2.05E0,1.4751185E1,-0E0,-3.8663406E-2,1.1359114E-2,-0E0,-7.016561E-2,3.2126176E-1,-0E0,5.0775066E-2,-0E0,1.0636342E-3,6.34324E-2],"split_indices":[1,26,23,0,12,0,13,14,14,37,0,0,25,0,0,11,0,0,0,0,0],"split_type":[0,0,0,0,0,0,0,0,0,0,0,0,0,0,0,0,0,0,0,0,0],"sum_hessian":[1.1458031E2,6.596259E1,4.861771E1,9.34243E0,5.6620163E1,6.869563E0,4.1748146E1,3.8824177E1,1.7795986E1,3.4620506E1,7.1276426E0,9.780662E0,2.9043516E1,8.948077E0,8.847909E0,2.855206E1,6.0684457E0,2.111186E1,7.931656E0,7.3434925E0,2.1208567E1],"tree_param":{"num_deleted":"0","num_feature":"40","num_nodes":"21","size_leaf_vector":"1"}},{"base_weights":[-4.416893E-2,1.4789388E-1,-5.352831E-1,-6.616024E-2,6.662155E-2,-7.728758E-2,-6.185088E-2,-4.6321854E-1,2.4493514E-1,1.9126095E-1,-5.6775298E-2,6.892145E-3,-6.949419E-2,4.1126948E-2,-5.2679544E-3,-0E0,2.7451782E-2],"categories":[],"categories_nodes":[],"categories_segments":[],"categories_sizes":[],"default_left":[0,0,0,0,0,0,0,0,0,0,0,0,0,0,0,0,0],"id":50,"left_children":[1,3,5,7,-1,-1,9,11,13,15,-1,-1,-1,-1,-1,-1,-1],"loss_changes":[1.0839366E1,1.3074555E1,5.427868E0,7.585646E0,0E0,0E0,4.4790535E0,8.39158E0,3.6422515E0,4.4174108E-1,0E0,0E0,0E0,0E0,0E0,0E0,0E0],"parents":[2147483647,0,0,1,1,2,2,3,3,6,6,7,7,8,8,9,9],"right_children":[2,4,6,8,-1,-1,10,12,14,16,-1,-1,-1,-1,-1,-1,-1],"split_conditions":[1E0,2.823267E-4,3.5238647E-1,1.6384956E1,6.662155E-2,-7.728758E-2,1.5361252E2,5.901763E-1,2.0594051E1,2.2653632E-3,-5.6775298E-2,6.892145E-3,-6.949419E-2,4.1126948E-2,-5.2679544E-3,-0E0,2.7451782E-2],"split_indices":[6,6,11,26,0,0,10,22,24,28,0,0,0,0,0,0,0],"split_type":[0,0,0,0,0,0,0,0,0,0,0,0,0,0,0,0,0],"sum_hessian":[1.0558943E2,7.397313E1,3.1616297E1,5.604297E1,1.7930164E1,1.3297156E1,1.831914E1,2.6807985E1,2.9234983E1,1.2117059E1,6.20208E0,1.0623989E1,1.6183996E1,1.7561434E1,1.1673549E1,6.0842104E0,6.032849E0],"tree_param":{"num_deleted":"0","num_feature":"40","num_nodes":"17","size_leaf_vector":"1"}},{"base_weights":[8.269584E-2,-6.1535876E-2,4.3895516E-1,-3.0257624E-1,2.3366323E-1,-0E0,5.559961E-2,-1.07417904E-1,-7.5688034E-2,-0E0,4.2433387E-1,-3.6449224E-2,4.198827E-2,-4.063154E-2,2.3543175E-2,-0E0,5.7876475E-2,-2.735171E-2,2.4180661E-1,-0E0,3.813105E-2],"categories":[],"categories_nodes":[],"categories_segments":[],"categories_sizes":[],"default_left":[0,0,0,0,0,0,0,0,0,0,0,0,0,0,0,0,0,0,0,0,0],"id":51,"left_children":[1,3,5,7,9,11,-1,13,-1,-1,15,-1,-1,-1,17,-1,-1,-1,19,-1,-1],"loss_changes":[6.325498E0,5.5917172E0,3.2975078E0,4.0519876E0,1.958369E0,4.93458E0,0E0,3.035488E0,0E0,0E0,3.591857E0,0E0,0E0,0E0,2.1933246E0,0E0,0E0,0E0,1.6622144E0,0E0,0E0],"parents":[2147483647,0,0,1,1,2,2,3,3,4,4,5,5,7,7,10,10,14,14,18,18],"right_children":[2,4,6,8,10,12,-1,14,-1,-1,16,-1,-1,-1,18,-1,-1,-1,20,-1,-1],"split_conditions":[1.8064218E2,2.999054E0,4.8541542E1,1.6904488E1,6.509115E-1,3.363163E-3,5.559961E-2,1.9469917E1,-7.5688034E-2,-0E0,3.854546E1,-3.6449224E-2,4.198827E-2,-4.063154E-2,1.6117473E0,-0E0,5.7876475E-2,-2.735171E-2,2.569E1,-0E0,3.813105E-2],"split_indices":[16,33,1,24,34,0,0,16,0,0,16,0,0,0,14,0,0,0,2,0,0],"split_type":[0,0,0,0,0,0,0,0,0,0,0,0,0,0,0,0,0,0,0,0,0],"sum_hessian":[1.0854425E2,7.4510574E1,3.403368E1,4.423199E1,3.0278585E1,1.6084837E1,1.7948843E1,3.74784E1,6.7535877E0,1.1058785E1,1.9219799E1,7.1634703E0,8.921366E0,1.1121754E1,2.635665E1,7.685393E0,1.1534406E1,6.4351153E0,1.9921534E1,9.428158E0,1.0493376E1],"tree_param":{"num_deleted":"0","num_feature":"40","num_nodes":"21","size_leaf_vector":"1"}},{"base_weights":[1.1234347E-1,-1.14806496E-1,4.0899068E-1,1.3563505E-1,-6.310501E-1,5.51581E-1,-0E0,3.5444465E-2,-9.794002E-3,-7.099755E-2,-0E0,1.552008E-1,6.341478E-2,-5.5356394E-2,2.586358E-1,-8.581257E-3,4.4721752E-2,-0E0,4.086915E-2],"categories":[],"categories_nodes":[],"categories_segments":[],"categories_sizes":[],"default_left":[0,0,0,0,0,0,0,0,0,0,0,0,0,0,0,0,0,0,0],"id":52,"left_children":[1,3,5,7,9,11,-1,-1,13,-1,-1,15,-1,-1,17,-1,-1,-1,-1],"loss_changes":[7.985608E0,8.717251E0,3.4355345E0,2.6506474E0,4.7066736E0,2.4676514E0,0E0,0E0,5.733461E0,0E0,0E0,3.218033E0,0E0,0E0,1.9786997E0,0E0,0E0,0E0,0E0],"parents":[2147483647,0,0,1,1,2,2,3,3,4,4,5,5,8,8,11,11,14,14],"right_children":[2,4,6,8,10,12,-1,-1,14,-1,-1,16,-1,-1,18,-1,-1,-1,-1],"split_conditions":[3.053608E-5,6.32E0,1.1909435E-2,2.1473124E1,5.2486E1,3.363163E-3,-0E0,3.5444465E-2,5.4E0,-7.099755E-2,-0E0,1.6039374E-1,6.341478E-2,-5.5356394E-2,2.497E1,-8.581257E-3,4.4721752E-2,-0E0,4.086915E-2],"split_indices":[38,9,38,2,1,0,0,0,9,0,0,39,0,0,2,0,0,0,0],"split_type":[0,0,0,0,0,0,0,0,0,0,0,0,0,0,0,0,0,0,0],"sum_hessian":[1.0890688E2,5.8788376E1,5.0118507E1,3.792215E1,2.0866224E1,3.830626E1,1.1812246E1,1.4532693E1,2.3389458E1,1.4510954E1,6.3552713E0,1.9076618E1,1.9229641E1,7.60783E0,1.5781628E1,9.807221E0,9.269397E0,6.0387497E0,9.742879E0],"tree_param":{"num_deleted":"0","num_feature":"40","num_nodes":"19","size_leaf_vector":"1"}},{"base_weights":[9.7678095E-2,-5.822264E-1,2.3871854E-1,-0E0,-7.444758E-2,4.8113802E-1,-2.1913031E-2,9.008677E-2,6.902421E-1,1.4801267E-1,-4.6396907E-2,-1.7169192E-2,3.9833733E-1,5.9732817E-2,4.657285E-3,-1.5188005E-2,3.4712124E-1,4.415435E-2,-0E0,-0E0,4.599508E-2],"categories":[],"categories_nodes":[],"categories_segments":[],"categories_sizes":[],"default_left":[0,0,0,0,0,0,0,0,0,0,0,0,0,0,0,0,0,0,0,0,0],"id":53,"left_children":[1,3,5,-1,-1,7,9,11,13,15,-1,-1,17,-1,-1,-1,19,-1,-1,-1,-1],"loss_changes":[1.0132526E1,4.263571E0,6.758054E0,0E0,0E0,2.8488445E0,5.1740723E0,2.5869715E0,2.3247528E-1,2.5495028E0,0E0,0E0,4.753387E-1,0E0,0E0,0E0,2.3793447E0,0E0,0E0,0E0,0E0],